{"learner":{"attributes":{"scikit_learn":"{\"_estimator_type\": \"regressor\"}"},"feature_names":["Year_Factor","floor_area","year_built","energy_star_rating","ELEVATION","january_min_temp","january_avg_temp","january_max_temp","february_min_temp","february_avg_temp","february_max_temp","march_min_temp","march_avg_temp","march_max_temp","april_min_temp","april_avg_temp","april_max_temp","may_min_temp","may_avg_temp","may_max_temp","june_min_temp","june_avg_temp","june_max_temp","july_min_temp","july_avg_temp","july_max_temp","august_min_temp","august_avg_temp","august_max_temp","september_min_temp","september_avg_temp","september_max_temp","october_min_temp","october_avg_temp","october_max_temp","november_min_temp","november_avg_temp","november_max_temp","december_min_temp","december_avg_temp","december_max_temp","cooling_degree_days","heating_degree_days","precipitation_inches","snowfall_inches","snowdepth_inches","avg_temp","days_below_30F","days_below_20F","days_below_10F","days_below_0F","days_above_80F","days_above_90F","days_above_100F","days_above_110F","direction_max_wind_speed","direction_peak_wind_speed","max_wind_speed","days_with_fog","State_Factor_label","building_class_label","facility_type_label","mean_value_by_facility_type","is_commercial","is_residential","mean_value_by_facility_type_2","mean_value_by_facility_type_1","is_2to4","is_5plus","is_Commercial","is_Data","is_Education","is_Food","is_Grocery","is_Health","is_Industrial","is_Laboratory","is_Lodging","is_Mixed","is_Multifamily","is_Nursing","is_Office","is_Parking","is_Public","is_Religious","is_Retail","is_Service","is_Warehouse","is_","is_Assembly_Drama_theater","is_Assembly_Entertainment_culture","is_Assembly_Library","is_Assembly_Movie_Theater","is_Assembly_Other","is_Assembly_Recreation","is_Assembly_Social_meeting","is_Assembly_Stadium","is_Assembly_Uncategorized","is_Bank_or_other_financial","is_Care_Inpatient","is_Care_Outpatient_Clinic","is_Care_Outpatient_Uncategorized","is_Care_Uncategorized","is_Center","is_College_or_university","is_Distribution_or_Shipping_center","is_Dormitory_or_fraternity_sorority","is_Drycleaning_or_Laundry","is_Enclosed_mall","is_Garage","is_Home","is_Hotel","is_Medical_non_diagnostic","is_Mixed_use","is_Nonrefrigerated","is_Other","is_Other_classroom","is_Preschool_or_daycare","is_Refrigerated","is_Safety_Courthouse","is_Safety_Fire_or_police_station","is_Safety_Penitentiary","is_Safety_Uncategorized","is_Sales","is_Selfstorage","is_Service_Other","is_Service_Restaurant_or_cafeteria","is_Service_Uncategorized","is_Strip_shopping_mall","is_Uncategorized","is_Unit_Building","is_Unknown","is_Use_Commercial_and_Residential","is_Use_Predominantly_Commercial","is_Use_Predominantly_Residential","is_Vehicle_dealership_showroom","is_Vehicle_service_repair_shop","is_store_or_food_market","is_worship"],"feature_types":["int","float","float","float","float","int","float","int","int","float","int","int","float","int","int","float","int","int","float","int","int","float","int","int","float","int","int","float","int","int","float","int","int","float","int","int","float","int","int","float","int","int","int","float","float","int","float","int","int","int","int","int","int","int","int","float","float","float","float","int","int","int","float","float","float","float","float","float","float","float","float","float","float","float","float","float","float","float","float","float","float","float","float","float","float","float","float","float","float","float","float","float","float","float","float","float","float","float","float","float","float","float","float","float","float","float","float","float","float","float","float","float","float","float","float","float","float","float","float","float","float","float","float","float","float","float","float","float","float","float","float","float","float","float","float","float","float","float","float"],"gradient_booster":{"model":{"gbtree_model_param":{"num_parallel_tree":"1","num_trees":"250"},"iteration_indptr":[0,1,2,3,4,5,6,7,8,9,10,11,12,13,14,15,16,17,18,19,20,21,22,23,24,25,26,27,28,29,30,31,32,33,34,35,36,37,38,39,40,41,42,43,44,45,46,47,48,49,50,51,52,53,54,55,56,57,58,59,60,61,62,63,64,65,66,67,68,69,70,71,72,73,74,75,76,77,78,79,80,81,82,83,84,85,86,87,88,89,90,91,92,93,94,95,96,97,98,99,100,101,102,103,104,105,106,107,108,109,110,111,112,113,114,115,116,117,118,119,120,121,122,123,124,125,126,127,128,129,130,131,132,133,134,135,136,137,138,139,140,141,142,143,144,145,146,147,148,149,150,151,152,153,154,155,156,157,158,159,160,161,162,163,164,165,166,167,168,169,170,171,172,173,174,175,176,177,178,179,180,181,182,183,184,185,186,187,188,189,190,191,192,193,194,195,196,197,198,199,200,201,202,203,204,205,206,207,208,209,210,211,212,213,214,215,216,217,218,219,220,221,222,223,224,225,226,227,228,229,230,231,232,233,234,235,236,237,238,239,240,241,242,243,244,245,246,247,248,249,250],"tree_info":[0,0,0,0,0,0,0,0,0,0,0,0,0,0,0,0,0,0,0,0,0,0,0,0,0,0,0,0,0,0,0,0,0,0,0,0,0,0,0,0,0,0,0,0,0,0,0,0,0,0,0,0,0,0,0,0,0,0,0,0,0,0,0,0,0,0,0,0,0,0,0,0,0,0,0,0,0,0,0,0,0,0,0,0,0,0,0,0,0,0,0,0,0,0,0,0,0,0,0,0,0,0,0,0,0,0,0,0,0,0,0,0,0,0,0,0,0,0,0,0,0,0,0,0,0,0,0,0,0,0,0,0,0,0,0,0,0,0,0,0,0,0,0,0,0,0,0,0,0,0,0,0,0,0,0,0,0,0,0,0,0,0,0,0,0,0,0,0,0,0,0,0,0,0,0,0,0,0,0,0,0,0,0,0,0,0,0,0,0,0,0,0,0,0,0,0,0,0,0,0,0,0,0,0,0,0,0,0,0,0,0,0,0,0,0,0,0,0,0,0,0,0,0,0,0,0,0,0,0,0,0,0,0,0,0,0,0,0,0,0,0,0,0,0,0,0,0,0,0,0],"trees":[{"base_weights":[7.1994655E-2,-2.5815337E0,1.6266412E2,5.1381397E1,-6.9818034E0,1.7613495E2,4.8724606E1,1.1976308E2,3.7044098E1,-4.9773525E1,-2.3862493E0,1.441246E2,2.1202644E2,4.137595E1,7.745359E1,5.06136E0,1.0478345E1,-8.3961153E-1,2.0905833E0,-2.2891893E0,-2.9324682E0,3.1545824E-1,-1.1041738E0,9.273134E0,6.070296E0,1.8124678E1,1.0138482E1,2.498346E0,1.2677406E-1,1.1437793E0,4.142306E0],"categories":[],"categories_nodes":[],"categories_segments":[],"categories_sizes":[],"default_left":[0,0,0,0,0,0,0,0,0,0,0,0,0,0,0,0,0,0,0,0,0,0,0,0,0,0,0,0,0,0,0],"id":0,"left_children":[1,3,5,7,9,11,13,15,17,19,21,23,25,27,29,-1,-1,-1,-1,-1,-1,-1,-1,-1,-1,-1,-1,-1,-1,-1,-1],"loss_changes":[2.3536058E7,1.2745803E7,1.335954E6,3.963276E6,9.759704E6,8.69028E5,1.6640516E4,1.145667E6,8.597715E5,1.67755E5,7.6763655E6,3.69108E5,4.37672E5,2.5566469E4,3.4024844E3,0E0,0E0,0E0,0E0,0E0,0E0,0E0,0E0,0E0,0E0,0E0,0E0,0E0,0E0,0E0,0E0],"parents":[2147483647,0,0,1,1,2,2,3,3,4,4,5,5,6,6,7,7,8,8,9,9,10,10,11,11,12,12,13,13,14,14],"right_children":[2,4,6,8,10,12,14,16,18,20,22,24,26,28,30,-1,-1,-1,-1,-1,-1,-1,-1,-1,-1,-1,-1,-1,-1,-1,-1],"split_conditions":[1.5704166E2,1.9E1,9E1,2E0,6.0974216E1,2.4834059E2,1.99E3,1E0,4.6640953E1,8E1,7.2E1,5.5E1,5E0,1.973E3,5.930645E1,5.06136E0,1.0478345E1,-8.3961153E-1,2.0905833E0,-2.2891893E0,-2.9324682E0,3.1545824E-1,-1.1041738E0,9.273134E0,6.070296E0,1.8124678E1,1.0138482E1,2.498346E0,1.2677406E-1,1.1437793E0,4.142306E0],"split_indices":[62,3,3,3,62,62,2,81,62,3,3,3,3,2,18,0,0,0,0,0,0,0,0,0,0,0,0,0,0,0,0],"split_type":[0,0,0,0,0,0,0,0,0,0,0,0,0,0,0,0,0,0,0,0,0,0,0,0,0,0,0,0,0,0,0],"sum_hessian":[5.455E4,5.3675E4,8.75E2,4.046E3,4.9629E4,7.82E2,9.3E1,7E2,3.346E3,4.812E3,4.4817E4,4.16E2,3.66E2,7.6E1,1.7E1,5.82E2,1.18E2,2.72E2,3.074E3,3.324E3,1.488E3,3.1092E4,1.3725E4,1.45E2,2.71E2,1.9E1,3.47E2,6.2E1,1.4E1,2E0,1.5E1],"tree_param":{"num_deleted":"0","num_feature":"139","num_nodes":"31","size_leaf_vector":"1"}},{"base_weights":[8.479716E-2,-2.3798542E0,1.5425595E2,-4.409673E1,2.1336155E0,1.4263235E2,2.3636601E2,-4.6409885E1,-3.3773773E1,-9.328611E-1,3.194095E1,1.9487039E2,1.357143E2,2.5007277E2,6.2374767E1,-2.939145E0,-2.2538905E0,-2.1076233E0,-7.7222675E-1,-1.1744413E0,2.1813368E-2,2.097076E0,-3.0858308E-1,1.7883686E1,8.559816E0,4.9762135E0,7.191607E0,1.1472278E1,2.2543493E1,6.709913E0,-1.0961837E0],"categories":[],"categories_nodes":[],"categories_segments":[],"categories_sizes":[],"default_left":[0,0,0,0,0,0,0,0,0,0,0,0,0,0,0,0,0,0,0,0,0,0,0,0,0,0,0,0,0,0,0],"id":1,"left_children":[1,3,5,7,9,11,13,15,17,19,21,23,25,27,29,-1,-1,-1,-1,-1,-1,-1,-1,-1,-1,-1,-1,-1,-1,-1,-1],"loss_changes":[2.0743754E7,1.0117366E7,7.86128E5,1.237E5,4.432003E6,2.464E5,2.34811E5,6.7941E4,1.4739538E5,1.3577689E6,1.7241895E6,2.7023025E5,1.82521E5,2.98313E5,5.743359E4,0E0,0E0,0E0,0E0,0E0,0E0,0E0,0E0,0E0,0E0,0E0,0E0,0E0,0E0,0E0,0E0],"parents":[2147483647,0,0,1,1,2,2,3,3,4,4,5,5,6,6,7,7,8,8,9,9,10,10,11,11,12,12,13,13,14,14],"right_children":[2,4,6,8,10,12,14,16,18,20,22,24,26,28,30,-1,-1,-1,-1,-1,-1,-1,-1,-1,-1,-1,-1,-1,-1,-1,-1],"split_conditions":[1.5704166E2,6.6595436E1,3.2944846E2,4.211254E1,9.65253E1,3E0,6.20782E5,2.9236616E1,5E0,3.636E3,2.8E1,1.925E3,2.4113516E2,4.68351E5,1.931E3,-2.939145E0,-2.2538905E0,-2.1076233E0,-7.7222675E-1,-1.1744413E0,2.1813368E-2,2.097076E0,-3.0858308E-1,1.7883686E1,8.559816E0,4.9762135E0,7.191607E0,1.1472278E1,2.2543493E1,6.709913E0,-1.0961837E0],"split_indices":[62,62,62,62,62,0,1,62,48,42,11,2,62,1,2,0,0,0,0,0,0,0,0,0,0,0,0,0,0,0,0],"split_type":[0,0,0,0,0,0,0,0,0,0,0,0,0,0,0,0,0,0,0,0,0,0,0,0,0,0,0,0,0,0,0],"sum_hessian":[5.459E4,5.3732E4,8.58E2,5.245E3,4.8487E4,7.54E2,1.04E2,4.282E3,9.63E2,4.3965E4,4.522E3,8.5E1,6.69E2,9.6E1,8E0,4.12E2,3.87E3,6.6E2,3.03E2,2.515E3,4.145E4,3.582E3,9.4E2,9E0,7.6E1,1.25E2,5.44E2,8.9E1,7E0,4E0,4E0],"tree_param":{"num_deleted":"0","num_feature":"139","num_nodes":"31","size_leaf_vector":"1"}},{"base_weights":[-9.122354E-2,-2.4012122E0,1.5206487E2,4.2374916E1,-7.026195E0,1.6536926E2,4.027309E1,1.0974283E2,3.153898E1,-4.5471546E1,-2.8476684E0,2.1975966E2,1.4519794E2,4.8176674E1,4.4300895E0,7.941964E0,4.0933127E0,-1.2137099E-2,1.8922194E0,-2.014457E0,-2.5728235E0,2.2751704E-1,-1.1713103E0,1.0474897E1,2.167199E1,1.0967762E1,6.5531993E0,2.7263377E0,4.0028128E-1,2.5156972E0,-4.4980094E-1],"categories":[],"categories_nodes":[],"categories_segments":[],"categories_sizes":[],"default_left":[0,0,0,0,0,0,0,0,0,0,0,0,0,0,0,0,0,0,0,0,0,0,0,0,0,0,0,0,0,0,0],"id":2,"left_children":[1,3,5,7,9,11,13,15,17,19,21,23,25,27,29,-1,-1,-1,-1,-1,-1,-1,-1,-1,-1,-1,-1,-1,-1,-1,-1],"loss_changes":[1.9154904E7,1.1117448E7,1.20551E6,3.66549E6,7.816531E6,7.668E5,2.4715922E4,9.395705E5,8.67927E5,1.45875E5,6.681776E6,3.36777E5,5.30955E5,1.7929906E4,1.0925333E4,0E0,0E0,0E0,0E0,0E0,0E0,0E0,0E0,0E0,0E0,0E0,0E0,0E0,0E0,0E0,0E0],"parents":[2147483647,0,0,1,1,2,2,3,3,4,4,5,5,6,6,7,7,8,8,9,9,10,10,11,11,12,12,13,13,14,14],"right_children":[2,4,6,8,10,12,14,16,18,20,22,24,26,28,30,-1,-1,-1,-1,-1,-1,-1,-1,-1,-1,-1,-1,-1,-1,-1,-1],"split_conditions":[1.839452E2,2.4E1,9E1,2E0,6.0974216E1,3.9E1,3.46E5,1E0,7.707439E1,6.3E1,7.7E1,3.2944846E2,1.7090489E2,1.4E1,9.6E1,7.941964E0,4.0933127E0,-1.2137099E-2,1.8922194E0,-2.014457E0,-2.5728235E0,2.2751704E-1,-1.1713103E0,1.0474897E1,2.167199E1,1.0967762E1,6.5531993E0,2.7263377E0,4.0028128E-1,2.5156972E0,-4.4980094E-1],"split_indices":[62,3,3,3,62,3,1,60,62,3,3,62,65,5,3,0,0,0,0,0,0,0,0,0,0,0,0,0,0,0,0],"split_type":[0,0,0,0,0,0,0,0,0,0,0,0,0,0,0,0,0,0,0,0,0,0,0,0,0,0,0,0,0,0,0],"sum_hessian":[5.4496E4,5.3682E4,8.14E2,5.025E3,4.8657E4,7.27E2,8.7E1,6.95E2,4.33E3,4.769E3,4.3888E4,1.94E2,5.33E2,7.1E1,1.6E1,2.5E2,4.45E2,7.17E2,3.613E3,2.56E3,2.209E3,3.2283E4,1.1605E4,1.87E2,7E0,8.3E1,4.5E2,6.1E1,1E1,3E0,1.3E1],"tree_param":{"num_deleted":"0","num_feature":"139","num_nodes":"31","size_leaf_vector":"1"}},{"base_weights":[-3.1823542E-2,-2.6179245E0,1.1233398E2,-4.027475E1,1.002412E0,8.395556E1,1.396228E2,-4.213243E1,-2.81442E1,-1.7819633E0,2.3489212E1,4.5990746E1,1.3538432E2,1.3477737E2,2.3439012E2,-2.040418E0,-2.688309E0,-9.3506604E-1,-1.9691603E0,-1.2076031E0,4.0015604E-2,-9.1602445E-2,1.4757165E0,4.037449E0,1.1975949E0,5.6691537E0,1.1188091E1,1.1224895E1,6.55551E0,2.0278608E1,9.538906E0],"categories":[],"categories_nodes":[],"categories_segments":[],"categories_sizes":[],"default_left":[0,0,0,0,0,0,0,0,0,0,0,0,0,0,0,0,0,0,0,0,0,0,0,0,0,0,0,0,0,0,0],"id":3,"left_children":[1,3,5,7,9,11,13,15,17,19,21,23,25,27,29,-1,-1,-1,-1,-1,-1,-1,-1,-1,-1,-1,-1,-1,-1,-1,-1],"loss_changes":[1.5848744E7,7.268222E6,9.38483E5,1.04187E5,3.0453492E6,1.1730735E6,2.54942E5,6.02375E4,6.548772E4,2.5001212E6,8.1764225E5,2.654108E5,4.723995E5,1.66664E5,1.3912775E5,0E0,0E0,0E0,0E0,0E0,0E0,0E0,0E0,0E0,0E0,0E0,0E0,0E0,0E0,0E0,0E0],"parents":[2147483647,0,0,1,1,2,2,3,3,4,4,5,5,6,6,7,7,8,8,9,9,10,10,11,11,12,12,13,13,14,14],"right_children":[2,4,6,8,10,12,14,16,18,20,22,24,26,28,30,-1,-1,-1,-1,-1,-1,-1,-1,-1,-1,-1,-1,-1,-1,-1,-1],"split_conditions":[1.3759575E2,6.91334E1,2.4113516E2,4.211254E1,9.380956E1,1.961E3,1.04E2,5.7E1,3.9E1,6.9E0,1.3E0,5.6293957E1,5E0,5E0,1.925E3,-2.040418E0,-2.688309E0,-9.3506604E-1,-1.9691603E0,-1.2076031E0,4.0015604E-2,-9.1602445E-2,1.4757165E0,4.037449E0,1.1975949E0,5.6691537E0,1.1188091E1,1.1224895E1,6.55551E0,2.0278608E1,9.538906E0],"split_indices":[65,65,65,65,65,2,25,61,32,44,44,46,50,61,2,0,0,0,0,0,0,0,0,0,0,0,0,0,0,0,0],"split_type":[0,0,0,0,0,0,0,0,0,0,0,0,0,0,0,0,0,0,0,0,0,0,0,0,0,0,0,0,0,0,0],"sum_hessian":[5.4538E4,5.3312E4,1.226E3,4.675E3,4.8637E4,6.03E2,6.23E2,4.052E3,6.23E2,4.3279E4,5.358E3,3.48E2,2.55E2,5.95E2,2.8E1,3.642E3,4.1E2,3.4E2,2.83E2,4.478E3,3.8801E4,1.03E3,4.328E3,1.34E2,2.14E2,2.06E2,4.9E1,2.1E1,5.74E2,4E0,2.4E1],"tree_param":{"num_deleted":"0","num_feature":"139","num_nodes":"31","size_leaf_vector":"1"}},{"base_weights":[7.585857E-2,-2.0703366E0,1.3406181E2,6.544824E1,-4.9093723E0,1.8547057E2,1.0992442E2,1.0724376E2,4.517883E1,2.9505281E0,-2.2997568E1,2.92922E2,1.7488548E2,9.141191E1,1.9502182E2,3.877248E0,7.863852E0,1.9399763E0,4.2455993E0,-1.771489E0,3.3673796E-1,-1.1726811E0,1.5038342E1,7.1611633E0,1.6327406E1,8.484649E0,1.793157E1,5.211487E0,1.5440124E0,7.034908E0,1.3155978E1],"categories":[],"categories_nodes":[],"categories_segments":[],"categories_sizes":[],"default_left":[0,0,0,0,0,0,0,0,0,0,0,0,0,0,0,0,0,0,0,0,0,0,0,0,0,0,0,0,0,0,0],"id":4,"left_children":[1,3,5,7,9,11,13,15,17,19,21,23,25,27,29,-1,-1,-1,-1,-1,-1,-1,-1,-1,-1,-1,-1,-1,-1,-1,-1],"loss_changes":[1.5667985E7,1.0279956E7,1.045522E6,1.828433E6,7.316778E6,2.59277E5,9.06913E5,1.036869E6,3.66518E5,5.2108675E6,2.3088235E6,6.9008E4,1.786225E5,3.72309E5,3.4770875E5,0E0,0E0,0E0,0E0,0E0,0E0,0E0,0E0,0E0,0E0,0E0,0E0,0E0,0E0,0E0,0E0],"parents":[2147483647,0,0,1,1,2,2,3,3,4,4,5,5,6,6,7,7,8,8,9,9,10,10,11,11,12,12,13,13,14,14],"right_children":[2,4,6,8,10,12,14,16,18,20,22,24,26,28,30,-1,-1,-1,-1,-1,-1,-1,-1,-1,-1,-1,-1,-1,-1,-1,-1],"split_conditions":[1.5704166E2,9E0,5.4E1,2E0,7.2E1,5E0,3.2944846E2,1E0,8.1595825E1,6.6595436E1,1.3759575E2,4E0,3.2944846E2,9E1,1.975E3,3.877248E0,7.863852E0,1.9399763E0,4.2455993E0,-1.771489E0,3.3673796E-1,-1.1726811E0,1.5038342E1,7.1611633E0,1.6327406E1,8.484649E0,1.793157E1,5.211487E0,1.5440124E0,7.034908E0,1.3155978E1],"split_indices":[62,3,3,3,3,3,62,63,65,62,65,5,62,3,2,0,0,0,0,0,0,0,0,0,0,0,0,0,0,0,0],"split_type":[0,0,0,0,0,0,0,0,0,0,0,0,0,0,0,0,0,0,0,0,0,0,0,0,0,0,0,0,0,0,0],"sum_hessian":[5.4484E4,5.3626E4,8.58E2,2.163E3,5.1463E4,2.72E2,5.86E2,7.05E2,1.458E3,3.5875E4,1.5588E4,2.2E1,2.5E2,4.83E2,1.03E2,4.44E2,2.61E2,1.258E3,2E2,3.219E3,3.2656E4,1.5567E4,2.1E1,5E0,1.7E1,2.45E2,5E0,3.98E2,8.5E1,5.9E1,4.4E1],"tree_param":{"num_deleted":"0","num_feature":"139","num_nodes":"31","size_leaf_vector":"1"}},{"base_weights":[-1.3306177E-1,-2.1424623E0,1.2615109E2,-3.6831528E1,1.6091063E0,1.1742861E2,1.8659435E2,-4.2081505E1,-3.3390606E1,-9.482012E-1,2.6892117E1,1.00876274E2,1.4080104E2,3.25815E2,1.7647635E2,-2.4479847E0,-2.0158367E0,-1.8581927E0,-1.225567E0,-8.928427E-1,3.57917E-2,1.7897408E0,-3.6481887E-1,4.0120907E0,6.1047273E0,5.3834414E0,8.335795E0,1.9373375E0,1.8773966E1,9.636356E0,2.5822933E0],"categories":[],"categories_nodes":[],"categories_segments":[],"categories_sizes":[],"default_left":[0,0,0,0,0,0,0,0,0,0,0,0,0,0,0,0,0,0,0,0,0,0,0,0,0,0,0,0,0,0,0],"id":5,"left_children":[1,3,5,7,9,11,13,15,17,19,21,23,25,27,29,-1,-1,-1,-1,-1,-1,-1,-1,-1,-1,-1,-1,-1,-1,-1,-1],"loss_changes":[1.3836033E7,6.9847185E6,4.2833E5,9.32175E4,3.1315952E6,2.75561E5,9.181675E4,2.31525E4,1.0526275E5,1.237629E6,1.3544025E6,1.83723E5,2.46504E5,7.099369E4,1.9493425E5,0E0,0E0,0E0,0E0,0E0,0E0,0E0,0E0,0E0,0E0,0E0,0E0,0E0,0E0,0E0,0E0],"parents":[2147483647,0,0,1,1,2,2,3,3,4,4,5,5,6,6,7,7,8,8,9,9,10,10,11,11,12,12,13,13,14,14],"right_children":[2,4,6,8,10,12,14,16,18,20,22,24,26,28,30,-1,-1,-1,-1,-1,-1,-1,-1,-1,-1,-1,-1,-1,-1,-1,-1],"split_conditions":[1.5704166E2,6.2872612E1,3.2944846E2,3.6737785E1,1.00965935E2,6.1E1,3E0,2.9236616E1,7.8564514E1,3.743E1,2.1E1,2.4113516E2,2.4834059E2,3.3973486E2,5.1339287E1,-2.4479847E0,-2.0158367E0,-1.8581927E0,-1.225567E0,-8.928427E-1,3.57917E-2,1.7897408E0,-3.6481887E-1,4.0120907E0,6.1047273E0,5.3834414E0,8.335795E0,1.9373375E0,1.8773966E1,9.636356E0,2.5822933E0],"split_indices":[62,62,62,62,62,23,4,62,24,43,8,66,62,62,36,0,0,0,0,0,0,0,0,0,0,0,0,0,0,0,0],"split_type":[0,0,0,0,0,0,0,0,0,0,0,0,0,0,0,0,0,0,0,0,0,0,0,0,0,0,0,0,0,0,0],"sum_hessian":[5.4523E4,5.367E4,8.53E2,5.237E3,4.8433E4,7.48E2,1.05E2,2.069E3,3.168E3,4.3985E4,4.448E3,4.41E2,3.07E2,5E0,1E2,4.17E2,1.652E3,2.221E3,9.47E2,3.94E3,4.0045E4,3.529E3,9.19E2,2.26E2,2.15E2,1.37E2,1.7E2,1E0,4E0,8.8E1,1.2E1],"tree_param":{"num_deleted":"0","num_feature":"139","num_nodes":"31","size_leaf_vector":"1"}},{"base_weights":[5.9347253E-2,-1.8523465E0,1.22205376E2,-3.488925E1,1.7430166E0,1.1153556E2,1.9137137E2,-3.6916435E1,-2.5980362E1,-8.179953E-1,2.6756449E1,7.8649826E1,1.186512E2,3.5265106E2,1.7879681E2,-2.5734925E0,-1.800392E0,-1.6648464E0,-4.9425426E-1,-6.354579E-1,6.90296E-2,1.7638865E0,-3.3161345E-1,2.5861776E0,5.3873453E0,8.342547E0,5.545004E0,1.8889042E0,1.9941679E1,9.7561865E0,2.4121492E0],"categories":[],"categories_nodes":[],"categories_segments":[],"categories_sizes":[],"default_left":[0,0,0,0,0,0,0,0,0,0,0,0,0,0,0,0,0,0,0,0,0,0,0,0,0,0,0,0,0,0,0],"id":6,"left_children":[1,3,5,7,9,11,13,15,17,19,21,23,25,27,29,-1,-1,-1,-1,-1,-1,-1,-1,-1,-1,-1,-1,-1,-1,-1,-1],"loss_changes":[1.2743806E7,6.382686E6,5.99303E5,9.4289E4,3.104483E6,1.61724E5,1.620575E5,5.4927E4,1.151955E5,1.1493494E6,1.280834E6,9.862925E4,2.05284E5,8.6724125E4,2.1439825E5,0E0,0E0,0E0,0E0,0E0,0E0,0E0,0E0,0E0,0E0,0E0,0E0,0E0,0E0,0E0,0E0],"parents":[2147483647,0,0,1,1,2,2,3,3,4,4,5,5,6,6,7,7,8,8,9,9,10,10,11,11,12,12,13,13,14,14],"right_children":[2,4,6,8,10,12,14,16,18,20,22,24,26,28,30,-1,-1,-1,-1,-1,-1,-1,-1,-1,-1,-1,-1,-1,-1,-1,-1],"split_conditions":[1.7090489E2,6.735124E1,3.2944846E2,4.211254E1,1.00965935E2,2.4113516E2,3E0,3.639E1,5E0,4E0,2.1E1,8.07E4,1.932E3,2.01429E5,5.1339287E1,-2.5734925E0,-1.800392E0,-1.6648464E0,-4.9425426E-1,-6.354579E-1,6.90296E-2,1.7638865E0,-3.3161345E-1,2.5861776E0,5.3873453E0,8.342547E0,5.545004E0,1.8889042E0,1.9941679E1,9.7561865E0,2.4121492E0],"split_indices":[62,62,62,62,62,62,4,43,48,59,8,1,2,1,36,0,0,0,0,0,0,0,0,0,0,0,0,0,0,0,0],"split_type":[0,0,0,0,0,0,0,0,0,0,0,0,0,0,0,0,0,0,0,0,0,0,0,0,0,0,0,0,0,0,0],"sum_hessian":[5.4574E4,5.3734E4,8.4E2,5.273E3,4.8461E4,7.3E2,1.1E2,4.293E3,9.8E2,4.3961E4,4.5E3,1.32E2,5.98E2,6E0,1.04E2,2.49E2,4.044E3,6.73E2,3.07E2,6.859E3,3.7102E4,3.585E3,9.15E2,7E1,6.2E1,8E1,5.18E2,1E0,5E0,9.2E1,1.2E1],"tree_param":{"num_deleted":"0","num_feature":"139","num_nodes":"31","size_leaf_vector":"1"}},{"base_weights":[-8.706232E-3,-1.8064213E0,1.144721E2,-3.328025E1,1.5920888E0,1.0514274E2,1.764165E2,-3.8270336E1,-3.0051706E1,-8.383433E-1,2.5165428E1,1.333639E2,9.4436264E1,1.8600226E2,3.2146152E1,-2.2588556E0,-1.8239015E0,-1.660911E0,-1.1272318E0,4.7309212E-2,-5.7702744E-1,1.6667954E0,-3.5052174E-1,3.6534822E0,8.159415E0,4.0816526E0,5.473803E0,8.2575035E0,1.4388045E1,-3.0701905E-1,3.5983891E0],"categories":[],"categories_nodes":[],"categories_segments":[],"categories_sizes":[],"default_left":[0,0,0,0,0,0,0,0,0,0,0,0,0,0,0,0,0,0,0,0,0,0,0,0,0,0,0,0,0,0,0],"id":7,"left_children":[1,3,5,7,9,11,13,15,17,19,21,23,25,27,29,-1,-1,-1,-1,-1,-1,-1,-1,-1,-1,-1,-1,-1,-1,-1,-1],"loss_changes":[1.1235041E7,5.749054E6,4.692E5,8.32375E4,2.7793242E6,2.097875E5,1.4476125E5,2.37785E4,7.496225E4,8.399004E5,1.1921868E6,3.47724E5,9.44665E4,1.68909E5,1.2638968E4,0E0,0E0,0E0,0E0,0E0,0E0,0E0,0E0,0E0,0E0,0E0,0E0,0E0,0E0,0E0,0E0],"parents":[2147483647,0,0,1,1,2,2,3,3,4,4,5,5,6,6,7,7,8,8,9,9,10,10,11,11,12,12,13,13,14,14],"right_children":[2,4,6,8,10,12,14,16,18,20,22,24,26,28,30,-1,-1,-1,-1,-1,-1,-1,-1,-1,-1,-1,-1,-1,-1,-1,-1],"split_conditions":[1.7090489E2,6.6595436E1,3.2944846E2,3.6737785E1,9.65253E1,7.1E1,6.20782E5,2.9236616E1,7.8564514E1,7.5E1,1.6E1,6.88E4,2.4113516E2,2.89504E5,5E0,-2.2588556E0,-1.8239015E0,-1.660911E0,-1.1272318E0,4.7309212E-2,-5.7702744E-1,1.6667954E0,-3.5052174E-1,3.6534822E0,8.159415E0,4.0816526E0,5.473803E0,8.2575035E0,1.4388045E1,-3.0701905E-1,3.5983891E0],"split_indices":[62,62,62,62,62,37,1,62,24,37,5,1,66,1,0,0,0,0,0,0,0,0,0,0,0,0,0,0,0,0,0],"split_type":[0,0,0,0,0,0,0,0,0,0,0,0,0,0,0,0,0,0,0,0,0,0,0,0,0,0,0,0,0,0,0],"sum_hessian":[5.4589E4,5.3746E4,8.43E2,5.237E3,4.8509E4,7.35E2,1.08E2,2.053E3,3.184E3,4.3976E4,4.533E3,1.99E2,5.36E2,1.01E2,7E0,4.18E2,1.635E3,2.237E3,9.47E2,3.7692E4,6.284E3,3.615E3,9.18E2,6.7E1,1.32E2,2.93E2,2.43E2,8.6E1,1.5E1,4E0,3E0],"tree_param":{"num_deleted":"0","num_feature":"139","num_nodes":"31","size_leaf_vector":"1"}},{"base_weights":[5.2916344E-2,-1.6714265E0,1.12389824E2,-3.1662209E1,1.5646633E0,1.031767E2,1.7204704E2,-3.3738182E1,-2.4256067E1,-7.402459E-1,2.3736095E1,8.6345024E1,1.26208145E2,1.8379326E2,2.1111977E1,-1.7016398E0,8.8024247E-1,-1.0128182E0,-1.9676932E0,-5.896041E-1,6.4809315E-2,1.577462E0,-3.0510968E-1,4.972776E0,3.2070663E0,3.7192833E0,7.1237082E0,8.511336E0,1.8511272E1,4.7514486E0,-2.8513706E0],"categories":[],"categories_nodes":[],"categories_segments":[],"categories_sizes":[],"default_left":[0,0,0,0,0,0,0,0,0,0,0,0,0,0,0,0,0,0,0,0,0,0,0,0,0,0,0,0,0,0,0],"id":8,"left_children":[1,3,5,7,9,11,13,15,17,19,21,23,25,27,29,-1,-1,-1,-1,-1,-1,-1,-1,-1,-1,-1,-1,-1,-1,-1,-1],"loss_changes":[1.0583777E7,5.222658E6,4.36243E5,7.9762E4,2.4821992E6,2.674405E5,1.8936775E5,6.24815E4,6.8707875E4,9.9027044E5,1.0665325E6,1.15301E5,2.43129E5,1.9243075E5,5.7401707E4,0E0,0E0,0E0,0E0,0E0,0E0,0E0,0E0,0E0,0E0,0E0,0E0,0E0,0E0,0E0,0E0],"parents":[2147483647,0,0,1,1,2,2,3,3,4,4,5,5,6,6,7,7,8,8,9,9,10,10,11,11,12,12,13,13,14,14],"right_children":[2,4,6,8,10,12,14,16,18,20,22,24,26,28,30,-1,-1,-1,-1,-1,-1,-1,-1,-1,-1,-1,-1,-1,-1,-1,-1],"split_conditions":[1.839452E2,6.2872612E1,3.2944846E2,6.3E1,9.65253E1,6.1E1,6.20782E5,8.2E1,5.7E1,4E0,2.1E1,1.4E1,6.5237E4,4.87959E5,1.931E3,-1.7016398E0,8.8024247E-1,-1.0128182E0,-1.9676932E0,-5.896041E-1,6.4809315E-2,1.577462E0,-3.0510968E-1,4.972776E0,3.2070663E0,3.7192833E0,7.1237082E0,8.511336E0,1.8511272E1,4.7514486E0,-2.8513706E0],"split_indices":[62,62,62,23,62,23,1,10,61,59,8,61,1,1,2,0,0,0,0,0,0,0,0,0,0,0,0,0,0,0,0],"split_type":[0,0,0,0,0,0,0,0,0,0,0,0,0,0,0,0,0,0,0,0,0,0,0,0,0,0,0,0,0,0,0],"sum_hessian":[5.4636E4,5.3811E4,8.25E2,5.24E3,4.8571E4,7.17E2,1.08E2,4.09E3,1.15E3,4.3998E4,4.573E3,4.17E2,3E2,1E2,8E0,4.067E3,2.3E1,9.11E2,2.39E2,6.845E3,3.7153E4,3.624E3,9.49E2,2.6E2,1.57E2,7.3E1,2.27E2,9.5E1,5E0,4E0,4E0],"tree_param":{"num_deleted":"0","num_feature":"139","num_nodes":"31","size_leaf_vector":"1"}},{"base_weights":[1.967364E-2,3.2741752E0,-1.746828E1,2.8893888E0,1.0692315E2,-1.9120358E1,9.144711E1,2.6521337E0,1.6978848E2,1.4263214E1,1.1988688E2,-2.1468763E1,2.295686E1,1.0671255E2,6.630691E1,1.8588291E-1,-1.4236811E0,4.5617824E0,1.3207816E1,1.3918302E0,-1.8726815E0,1.0995124E1,5.6703963E0,-1.0862529E0,1.1837011E1,-4.6641263E-1,2.5733528E0,3.736533E0,6.2057743E0,1.0859663E0,5.417211E0],"categories":[],"categories_nodes":[],"categories_segments":[],"categories_sizes":[],"default_left":[0,0,0,0,0,0,0,0,0,0,0,0,0,0,0,0,0,0,0,0,0,0,0,0,0,0,0,0,0,0,0],"id":9,"left_children":[1,3,5,7,9,11,13,15,17,19,21,23,25,27,29,-1,-1,-1,-1,-1,-1,-1,-1,-1,-1,-1,-1,-1,-1,-1,-1],"loss_changes":[3.1032675E6,1.8330994E6,1.541106E6,1.8131612E6,2.02497E5,8.333E5,4.20475E4,1.5169848E6,4.5773538E5,1.6485984E4,7.1613E4,5.3343825E5,4.11003E5,3.4137938E4,9.323831E4,0E0,0E0,0E0,0E0,0E0,0E0,0E0,0E0,0E0,0E0,0E0,0E0,0E0,0E0,0E0,0E0],"parents":[2147483647,0,0,1,1,2,2,3,3,4,4,5,5,6,6,7,7,8,8,9,9,10,10,11,11,12,12,13,13,14,14],"right_children":[2,4,6,8,10,12,14,16,18,20,22,24,26,28,30,-1,-1,-1,-1,-1,-1,-1,-1,-1,-1,-1,-1,-1,-1,-1,-1],"split_conditions":[4.283871E1,1E0,1E0,1E0,1.966E3,1E0,1.984E3,5.5E1,1.971E3,8.4E1,3E0,1E0,1.953E3,1.951E3,1.996E3,1.8588291E-1,-1.4236811E0,4.5617824E0,1.3207816E1,1.3918302E0,-1.8726815E0,1.0995124E1,5.6703963E0,-1.0862529E0,1.1837011E1,-4.6641263E-1,2.5733528E0,3.736533E0,6.2057743E0,1.0859663E0,5.417211E0],"split_indices":[6,73,73,76,2,115,2,61,2,16,0,70,2,2,2,0,0,0,0,0,0,0,0,0,0,0,0,0,0,0,0],"split_type":[0,0,0,0,0,0,0,0,0,0,0,0,0,0,0,0,0,0,0,0,0,0,0,0,0,0,0,0,0,0,0],"sum_hessian":[5.4523E4,4.5969E4,8.554E3,4.58E4,1.69E2,8.427E3,1.27E2,4.5736E4,6.4E1,2.1E1,1.48E2,7.982E3,4.45E2,7.7E1,5E1,4.4223E4,1.513E3,3.6E1,2.8E1,1.7E1,4E0,7E0,1.41E2,7.975E3,7E0,2.09E2,2.36E2,2.9E1,4.8E1,2.5E1,2.5E1],"tree_param":{"num_deleted":"0","num_feature":"139","num_nodes":"31","size_leaf_vector":"1"}},{"base_weights":[4.40944E-2,3.1810663E1,-5.8447285E0,1.0621625E2,2.5036375E1,-7.512352E0,6.690921E1,1.5615384E2,7.484825E1,2.1778189E1,1.4942569E2,-2.4987452E0,-2.9290804E1,5.938762E1,1.3395389E2,3.230045E0,9.05466E0,1.2470009E0,4.205655E0,-7.32724E-2,1.307738E0,6.5001044E0,9.895826E0,-1.4625348E0,1.2366895E-2,-1.2136667E0,-2.3399367E0,5.61259E0,2.5195582E0,7.415139E0,2.3146508E-2],"categories":[],"categories_nodes":[],"categories_segments":[],"categories_sizes":[],"default_left":[0,0,0,0,0,0,0,0,0,0,0,0,0,0,0,0,0,0,0,0,0,0,0,0,0,0,0,0,0,0,0],"id":10,"left_children":[1,3,5,7,9,11,13,15,17,19,21,23,25,27,29,-1,-1,-1,-1,-1,-1,-1,-1,-1,-1,-1,-1,-1,-1,-1,-1],"loss_changes":[1.0181906E7,4.287771E6,5.571437E6,1.100486E6,3.1591735E6,4.901294E6,5.109515E5,6.11634E5,2.0043E5,7.736755E5,1.61702E5,2.680675E6,7.36767E5,4.352155E5,1.9722262E5,0E0,0E0,0E0,0E0,0E0,0E0,0E0,0E0,0E0,0E0,0E0,0E0,0E0,0E0,0E0,0E0],"parents":[2147483647,0,0,1,1,2,2,3,3,4,4,5,5,6,6,7,7,8,8,9,9,10,10,11,11,12,12,13,13,14,14],"right_children":[2,4,6,8,10,12,14,16,18,20,22,24,26,28,30,-1,-1,-1,-1,-1,-1,-1,-1,-1,-1,-1,-1,-1,-1,-1,-1],"split_conditions":[3.9E1,2E0,1.3759575E2,1E0,1.4739046E2,8.6E1,3.2944846E2,7.707439E1,6.4E1,7.707439E1,6.1E1,6.2872612E1,9.9E1,6.1048607E1,5.736612E1,3.230045E0,9.05466E0,1.2470009E0,4.205655E0,-7.32724E-2,1.307738E0,6.5001044E0,9.895826E0,-1.4625348E0,1.2366895E-2,-1.2136667E0,-2.3399367E0,5.61259E0,2.5195582E0,7.415139E0,2.3146508E-2],"split_indices":[3,3,65,60,66,3,62,62,45,62,23,62,3,3,46,0,0,0,0,0,0,0,0,0,0,0,0,0,0,0,0],"split_type":[0,0,0,0,0,0,0,0,0,0,0,0,0,0,0,0,0,0,0,0,0,0,0,0,0,0,0,0,0,0,0],"sum_hessian":[5.4427E4,8.511E3,4.5916E4,7.09E2,7.802E3,4.4888E4,1.028E3,2.72E2,4.37E2,7.604E3,1.98E2,3.6489E4,8.399E3,9.26E2,1.02E2,5.9E1,2.13E2,6.9E1,3.68E2,1.205E3,6.399E3,1.44E2,5.4E1,3.396E3,3.3093E4,6.53E3,1.869E3,1.33E2,7.93E2,9.2E1,1E1],"tree_param":{"num_deleted":"0","num_feature":"139","num_nodes":"31","size_leaf_vector":"1"}},{"base_weights":[-8.107904E-2,-1.6999063E0,9.084596E1,-2.1703304E1,2.0147703E0,5.714536E1,1.0256998E2,-2.881033E1,-1.3127431E1,7.875123E-3,2.1046824E1,3.008531E1,8.090248E1,9.589816E1,1.4082774E2,-1.4030393E0,-2.1064007E0,2.102776E0,-7.2743714E-1,6.194969E-2,-7.854788E-1,1.3930278E0,-2.2227839E-1,-2.1470602E0,2.5088913E0,2.8254726E0,5.6003594E0,7.352842E0,4.452543E0,1.6954636E1,6.362603E0],"categories":[],"categories_nodes":[],"categories_segments":[],"categories_sizes":[],"default_left":[0,0,0,0,0,0,0,0,0,0,0,0,0,0,0,0,0,0,0,0,0,0,0,0,0,0,0,0,0,0,0],"id":11,"left_children":[1,3,5,7,9,11,13,15,17,19,21,23,25,27,29,-1,-1,-1,-1,-1,-1,-1,-1,-1,-1,-1,-1,-1,-1,-1,-1],"loss_changes":[8.044665E6,3.9900612E6,3.718605E5,5.12202E5,1.7297901E6,1.5764044E5,1.67211E5,4.4716E4,2.9967362E5,7.9277144E5,7.505009E5,1.7529447E5,9.3824E4,1.99186E5,2.3408288E5,0E0,0E0,0E0,0E0,0E0,0E0,0E0,0E0,0E0,0E0,0E0,0E0,0E0,0E0,0E0,0E0],"parents":[2147483647,0,0,1,1,2,2,3,3,4,4,5,5,6,6,7,7,8,8,9,9,10,10,11,11,12,12,13,13,14,14],"right_children":[2,4,6,8,10,12,14,16,18,20,22,24,26,28,30,-1,-1,-1,-1,-1,-1,-1,-1,-1,-1,-1,-1,-1,-1,-1,-1],"split_conditions":[1.3759575E2,7.707439E1,2.4113516E2,4.61728E1,1.00965935E2,7.8564514E1,3.2944846E2,5.15E1,1.0875E4,6.8E1,2.1E1,1.5704166E2,8.0154E4,3E0,3E0,-1.4030393E0,-2.1064007E0,2.102776E0,-7.2743714E-1,6.194969E-2,-7.854788E-1,1.3930278E0,-2.2227839E-1,-2.1470602E0,2.5088913E0,2.8254726E0,5.6003594E0,7.352842E0,4.452543E0,1.6954636E1,6.362603E0],"split_indices":[62,62,62,62,62,24,62,12,1,10,8,62,1,0,4,0,0,0,0,0,0,0,0,0,0,0,0,0,0,0,0],"split_type":[0,0,0,0,0,0,0,0,0,0,0,0,0,0,0,0,0,0,0,0,0,0,0,0,0,0,0,0,0,0,0],"sum_hessian":[5.4651E4,5.3696E4,9.55E2,8.409E3,4.5287E4,2.48E2,7.07E2,4.597E3,3.812E3,4.0968E4,4.319E3,1.17E2,1.31E2,6.05E2,1.02E2,4.355E3,2.42E2,9.5E1,3.717E3,3.7993E4,2.975E3,3.408E3,9.11E2,2.5E1,9.2E1,7.5E1,5.6E1,6.9E1,5.36E2,5E0,9.7E1],"tree_param":{"num_deleted":"0","num_feature":"139","num_nodes":"31","size_leaf_vector":"1"}},{"base_weights":[-5.3594537E-2,3.4506138E1,-4.981163E0,9.728682E1,2.7068895E1,8.896288E-1,-2.2758429E1,6.9363815E1,1.4265054E2,2.4068127E1,1.3927444E2,-5.112439E-1,9.1034676E1,-2.3182716E1,2.421227E2,4.3694706E0,1.8082036E0,2.3109038E0,8.479882E0,2.0502715E0,9.252824E-1,1.7076965E1,6.5901513E0,-1.237039E0,1.0353507E-1,2.1474984E0,5.1369834E0,-9.057164E-1,-1.9575697E0,-3.3876946E0,2.9697912E1],"categories":[],"categories_nodes":[],"categories_segments":[],"categories_sizes":[],"default_left":[0,0,0,0,0,0,0,0,0,0,0,0,0,0,0,0,0,0,0,0,0,0,0,0,0,0,0,0,0,0,0],"id":12,"left_children":[1,3,5,7,9,11,13,15,17,19,21,23,25,27,29,-1,-1,-1,-1,-1,-1,-1,-1,-1,-1,-1,-1,-1,-1,-1,-1],"loss_changes":[9.268843E6,3.168655E6,4.971629E6,9.00856E5,2.0417815E6,4.522322E6,1.334686E6,2.643445E5,7.015725E5,5.5670175E5,1.9375475E5,2.2061432E6,3.04019E5,9.549765E5,2.1117292E6,0E0,0E0,0E0,0E0,0E0,0E0,0E0,0E0,0E0,0E0,0E0,0E0,0E0,0E0,0E0,0E0],"parents":[2147483647,0,0,1,1,2,2,3,3,4,4,5,5,6,6,7,7,8,8,9,9,10,10,11,11,12,12,13,13,14,14],"right_children":[2,4,6,8,10,12,14,16,18,20,22,24,26,28,30,-1,-1,-1,-1,-1,-1,-1,-1,-1,-1,-1,-1,-1,-1,-1,-1],"split_conditions":[3.2E1,2E0,8E1,1E0,1.3679323E2,1.839452E2,1E0,1.974E3,7.707439E1,9E0,5E0,6.91334E1,3.743E1,9.7E1,6E0,4.3694706E0,1.8082036E0,2.3109038E0,8.479882E0,2.0502715E0,9.252824E-1,1.7076965E1,6.5901513E0,-1.237039E0,1.0353507E-1,2.1474984E0,5.1369834E0,-9.057164E-1,-1.9575697E0,-3.3876946E0,2.9697912E1],"split_indices":[3,3,3,63,62,62,75,2,62,3,61,62,43,3,59,0,0,0,0,0,0,0,0,0,0,0,0,0,0,0,0],"split_type":[0,0,0,0,0,0,0,0,0,0,0,0,0,0,0,0,0,0,0,0,0,0,0,0,0,0,0,0,0,0,0],"sum_hessian":[5.4426E4,6.791E3,4.7635E4,7.18E2,6.073E3,3.581E4,1.1825E4,4.46E2,2.72E2,5.916E3,1.57E2,3.5263E4,5.47E2,1.1807E4,1.8E1,2.88E2,1.58E2,6E1,2.12E2,1.461E3,4.455E3,4E0,1.53E2,3.395E3,3.1868E4,1.08E2,4.39E2,8.964E3,2.843E3,1E1,8E0],"tree_param":{"num_deleted":"0","num_feature":"139","num_nodes":"31","size_leaf_vector":"1"}},{"base_weights":[1.2831073E-1,3.875682E1,-3.890551E0,9.495165E1,2.9662413E1,1.5115421E0,-2.2159103E1,1.4161404E2,6.657646E1,2.6624945E1,1.4087064E2,9.56131E-2,9.036623E1,-2.2532423E1,2.012691E2,3.3409355E0,8.174122E0,1.4750925E1,3.1930044E0,2.8302994E-1,1.543024E0,4.92565E0,8.192109E0,-1.2371645E0,1.0464131E-1,2.2068791E0,5.037418E0,-8.803467E-1,-1.8644373E0,-3.158973E0,2.227954E1],"categories":[],"categories_nodes":[],"categories_segments":[],"categories_sizes":[],"default_left":[0,0,0,0,0,0,0,0,0,0,0,0,0,0,0,0,0,0,0,0,0,0,0,0,0,0,0,0,0,0,0],"id":13,"left_children":[1,3,5,7,9,11,13,15,17,19,21,23,25,27,29,-1,-1,-1,-1,-1,-1,-1,-1,-1,-1,-1,-1,-1,-1,-1,-1],"loss_changes":[8.508845E6,2.6368025E6,4.8994205E6,9.42567E5,1.4984072E6,4.820601E6,9.495685E5,4.323385E5,2.5977975E5,3.843085E5,9.8676E4,1.8710889E6,2.84004E5,8.21524E5,1.255752E6,0E0,0E0,0E0,0E0,0E0,0E0,0E0,0E0,0E0,0E0,0E0,0E0,0E0,0E0,0E0,0E0],"parents":[2147483647,0,0,1,1,2,2,3,3,4,4,5,5,6,6,7,7,8,8,9,9,10,10,11,11,12,12,13,13,14,14],"right_children":[2,4,6,8,10,12,14,16,18,20,22,24,26,28,30,-1,-1,-1,-1,-1,-1,-1,-1,-1,-1,-1,-1,-1,-1,-1,-1],"split_conditions":[2.4E1,2E0,8.1E1,1E0,1.4739046E2,2.2389668E2,1E0,7.8599045E1,1.65E4,7.8599045E1,7.069355E1,6.735124E1,3.743E1,9.7E1,6.5E1,3.3409355E0,8.174122E0,1.4750925E1,3.1930044E0,2.8302994E-1,1.543024E0,4.92565E0,8.192109E0,-1.2371645E0,1.0464131E-1,2.2068791E0,5.037418E0,-8.803467E-1,-1.8644373E0,-3.158973E0,2.227954E1],"split_indices":[3,3,3,60,66,66,75,66,1,66,24,66,43,3,47,0,0,0,0,0,0,0,0,0,0,0,0,0,0,0,0],"split_type":[0,0,0,0,0,0,0,0,0,0,0,0,0,0,0,0,0,0,0,0,0,0,0,0,0,0,0,0,0,0,0],"sum_hessian":[5.4808E4,5.164E3,4.9644E4,7.18E2,4.446E3,3.8315E4,1.1329E4,2.7E2,4.48E2,4.329E3,1.17E2,3.7715E4,6E2,1.1311E4,1.8E1,6.2E1,2.08E2,4E0,4.44E2,7.28E2,3.601E3,4.3E1,7.4E1,2.806E3,3.4909E4,1.11E2,4.89E2,8.482E3,2.829E3,9E0,9E0],"tree_param":{"num_deleted":"0","num_feature":"139","num_nodes":"31","size_leaf_vector":"1"}},{"base_weights":[-5.2610215E-2,2.739486E1,-5.0958548E0,8.983497E1,2.1696644E1,1.04329795E-1,-2.1073677E1,1.3069261E2,6.4894325E1,3.2712215E1,1.4996451E1,2.1414135E0,-1.2488458E1,-2.1478333E1,2.0828693E2,3.3754823E0,7.4340196E0,1.8712748E1,3.0960479E0,1.9675289E0,3.6420715E-1,-3.1563935E-1,9.033341E-1,1.4994118E-1,-1.2165444E0,-7.600253E-1,7.423393E-1,-8.418806E-1,-1.7641684E0,2.4066837E1,-2.9437668E0],"categories":[],"categories_nodes":[],"categories_segments":[],"categories_sizes":[],"default_left":[0,0,0,0,0,0,0,0,0,0,0,0,0,0,0,0,0,0,0,0,0,0,0,0,0,0,0,0,0,0,0],"id":14,"left_children":[1,3,5,7,9,11,13,15,17,19,21,23,25,27,29,-1,-1,-1,-1,-1,-1,-1,-1,-1,-1,-1,-1,-1,-1,-1,-1],"loss_changes":[7.542741E6,3.007383E6,3.8246915E6,7.119625E5,5.716575E5,8.909402E5,1.0535295E6,2.934135E5,3.8247712E5,4.94468E5,3.1559E5,6.7861806E5,3.5874025E5,7.22319E5,1.4873109E6,0E0,0E0,0E0,0E0,0E0,0E0,0E0,0E0,0E0,0E0,0E0,0E0,0E0,0E0,0E0,0E0],"parents":[2147483647,0,0,1,1,2,2,3,3,4,4,5,5,6,6,7,7,8,8,9,9,10,10,11,11,12,12,13,13,14,14],"right_children":[2,4,6,8,10,12,14,16,18,20,22,24,26,28,30,-1,-1,-1,-1,-1,-1,-1,-1,-1,-1,-1,-1,-1,-1,-1,-1],"split_conditions":[3.9E1,2E0,8.1E1,1E0,1E0,4.2596775E1,1E0,4.9E1,1.4568E4,1E0,6.4E1,5.5E1,1E0,9.7E1,4.4466667E1,3.3754823E0,7.4340196E0,1.8712748E1,3.0960479E0,1.9675289E0,3.6420715E-1,-3.1563935E-1,9.033341E-1,1.4994118E-1,-1.2165444E0,-7.600253E-1,7.423393E-1,-8.418806E-1,-1.7641684E0,2.4066837E1,-2.9437668E0],"split_indices":[3,3,3,60,60,6,88,20,1,116,45,61,69,3,36,0,0,0,0,0,0,0,0,0,0,0,0,0,0,0,0],"split_type":[0,0,0,0,0,0,0,0,0,0,0,0,0,0,0,0,0,0,0,0,0,0,0,0,0,0,0,0,0,0,0],"sum_hessian":[5.4488E4,8.457E3,4.6031E4,7.06E2,7.751E3,3.4729E4,1.1302E4,2.66E2,4.4E2,2.93E3,4.821E3,2.9894E4,4.835E3,1.1283E4,1.9E1,6E1,2.06E2,3E0,4.37E2,2.323E3,6.07E2,6.07E2,4.214E3,2.8957E4,9.37E2,4.399E3,4.36E2,8.446E3,2.837E3,9E0,1E1],"tree_param":{"num_deleted":"0","num_feature":"139","num_nodes":"31","size_leaf_vector":"1"}},{"base_weights":[-3.7918087E-2,3.1615417E1,-4.029648E0,8.42213E1,2.4562302E1,-5.916201E0,4.6335655E1,1.2367587E2,6.07103E1,2.1923965E1,1.2962984E2,-1.7700081E0,-2.3453987E1,2.9160627E1,7.665113E1,2.6282992E0,7.213875E0,5.710052E-1,3.4521902E0,1.9076611E0,8.4155864E-1,1.6080019E1,6.0559134E0,-9.23772E-1,5.4113455E-2,-9.754883E-1,-1.9504238E0,1.6355816E0,-6.957204E-1,4.432847E0,1.6155216E-1],"categories":[],"categories_nodes":[],"categories_segments":[],"categories_sizes":[],"default_left":[0,0,0,0,0,0,0,0,0,0,0,0,0,0,0,0,0,0,0,0,0,0,0,0,0,0,0,0,0,0,0],"id":15,"left_children":[1,3,5,7,9,11,13,15,17,19,21,23,25,27,29,-1,-1,-1,-1,-1,-1,-1,-1,-1,-1,-1,-1,-1,-1,-1,-1],"loss_changes":[6.9039765E6,2.2682965E6,4.610681E6,6.631585E5,1.493225E6,3.4009142E6,9.09977E5,3.864955E5,1.8610725E5,4.346045E5,1.7673275E5,1.8025159E6,5.47895E5,1.7177006E5,5.57682E5,0E0,0E0,0E0,0E0,0E0,0E0,0E0,0E0,0E0,0E0,0E0,0E0,0E0,0E0,0E0,0E0],"parents":[2147483647,0,0,1,1,2,2,3,3,4,4,5,5,6,6,7,7,8,8,9,9,10,10,11,11,12,12,13,13,14,14],"right_children":[2,4,6,8,10,12,14,16,18,20,22,24,26,28,30,-1,-1,-1,-1,-1,-1,-1,-1,-1,-1,-1,-1,-1,-1,-1,-1],"split_conditions":[2.9E1,2E0,1.2095833E2,1E0,1.3679323E2,8.5E1,1.9559392E2,7.707439E1,6.4E1,8E0,5E0,7.707439E1,9.9E1,2.2E1,9E1,2.6282992E0,7.213875E0,5.710052E-1,3.4521902E0,1.9076611E0,8.4155864E-1,1.6080019E1,6.0559134E0,-9.23772E-1,5.4113455E-2,-9.754883E-1,-1.9504238E0,1.6355816E0,-6.957204E-1,4.432847E0,1.6155216E-1],"split_indices":[3,3,62,60,62,3,62,62,45,3,61,62,3,52,3,0,0,0,0,0,0,0,0,0,0,0,0,0,0,0,0],"split_type":[0,0,0,0,0,0,0,0,0,0,0,0,0,0,0,0,0,0,0,0,0,0,0,0,0,0,0,0,0,0,0],"sum_hessian":[5.4639E4,6.118E3,4.8521E4,7.22E2,5.396E3,4.677E4,1.751E3,2.68E2,4.54E2,5.265E3,1.31E2,3.7828E4,8.942E3,1.119E3,6.32E2,6.1E1,2.07E2,6.6E1,3.88E2,1.256E3,4.009E3,4E0,1.27E2,5.516E3,3.2312E4,7.135E3,1.807E3,1.034E3,8.5E1,5.43E2,8.9E1],"tree_param":{"num_deleted":"0","num_feature":"139","num_nodes":"31","size_leaf_vector":"1"}},{"base_weights":[-9.302399E-3,-2.05473E0,5.2680794E1,-2.3984526E1,-4.9541686E-2,4.0635025E1,7.933423E1,-2.5733011E1,-1.7691223E1,-8.974918E0,1.9509202E0,3.4642868E1,1.2577696E2,1.0869979E2,6.787643E1,-1.2248801E0,-1.7080425E0,-1.4753898E0,-6.885753E-1,-6.9787276E-1,3.8814768E-1,4.4540837E-2,1.1231868E0,4.7332808E-1,2.0976994E0,4.1379E0,8.643699E0,3.0735986E0,6.321876E0,3.2862492E0,6.570657E0],"categories":[],"categories_nodes":[],"categories_segments":[],"categories_sizes":[],"default_left":[0,0,0,0,0,0,0,0,0,0,0,0,0,0,0,0,0,0,0,0,0,0,0,0,0,0,0,0,0,0,0],"id":16,"left_children":[1,3,5,7,9,11,13,15,17,19,21,23,25,27,29,-1,-1,-1,-1,-1,-1,-1,-1,-1,-1,-1,-1,-1,-1,-1,-1],"loss_changes":[5.8747485E6,2.3074132E6,6.507775E5,4.791725E4,8.584443E5,7.12451E5,2.0560425E5,3.495925E4,4.401222E4,7.342527E5,8.540644E5,2.4146688E5,1.7209125E5,1.396655E5,5.396925E4,0E0,0E0,0E0,0E0,0E0,0E0,0E0,0E0,0E0,0E0,0E0,0E0,0E0,0E0,0E0,0E0],"parents":[2147483647,0,0,1,1,2,2,3,3,4,4,5,5,6,6,7,7,8,8,9,9,10,10,11,11,12,12,13,13,14,14],"right_children":[2,4,6,8,10,12,14,16,18,20,22,24,26,28,30,-1,-1,-1,-1,-1,-1,-1,-1,-1,-1,-1,-1,-1,-1,-1,-1],"split_conditions":[1.2670429E2,6.0974216E1,2.4113516E2,6.3E1,4E0,1E0,7.1E1,8.4E1,2.9236616E1,8.211031E1,1.00965935E2,5E0,1.971E3,5.215E1,3.3973486E2,-1.2248801E0,-1.7080425E0,-1.4753898E0,-6.885753E-1,-6.9787276E-1,3.8814768E-1,4.4540837E-2,1.1231868E0,4.7332808E-1,2.0976994E0,4.1379E0,8.643699E0,3.0735986E0,6.321876E0,3.2862492E0,6.570657E0],"split_indices":[65,65,65,23,59,76,37,34,65,65,65,59,2,15,65,0,0,0,0,0,0,0,0,0,0,0,0,0,0,0,0],"split_type":[0,0,0,0,0,0,0,0,0,0,0,0,0,0,0,0,0,0,0,0,0,0,0,0,0,0,0,0,0,0,0],"sum_hessian":[5.4508E4,5.2472E4,2.036E3,4.395E3,4.8077E4,1.404E3,6.32E2,3.437E3,9.58E2,8.802E3,3.9275E4,1.313E3,9.1E1,1.75E2,4.57E2,3.001E3,4.36E2,2.37E2,7.21E2,6.783E3,2.019E3,3.7346E4,1.929E3,2.96E2,1.017E3,4.9E1,4.2E1,4.9E1,1.26E2,4.44E2,1.3E1],"tree_param":{"num_deleted":"0","num_feature":"139","num_nodes":"31","size_leaf_vector":"1"}},{"base_weights":[1.1710415E-1,-1.7893099E0,4.9305897E1,-2.178618E1,4.1547963E-1,3.1073023E1,7.973295E1,-2.5837206E1,-1.9164146E1,-1.013269E0,1.19480095E1,-3.5126877E-1,3.919286E1,7.342663E1,1.1770979E2,-9.9098444E-1,-1.4111235E0,-1.1230919E0,-6.9214135E-1,-6.1478883E-1,4.466281E-2,-1.717724E-2,1.1445633E0,-2.1295216E0,3.267538E-1,7.386041E-1,2.3089023E0,3.3361747E0,6.479097E0,6.411049E0,-5.496071E-1],"categories":[],"categories_nodes":[],"categories_segments":[],"categories_sizes":[],"default_left":[0,0,0,0,0,0,0,0,0,0,0,0,0,0,0,0,0,0,0,0,0,0,0,0,0,0,0,0,0,0,0],"id":17,"left_children":[1,3,5,7,9,11,13,15,17,19,21,23,25,27,29,-1,-1,-1,-1,-1,-1,-1,-1,-1,-1,-1,-1,-1,-1,-1,-1],"loss_changes":[5.122129E6,2.3183795E6,1.1281495E6,5.49725E4,7.804164E5,3.2559812E5,1.74091E5,2.8850625E4,5.5386625E4,9.0652306E5,7.022826E5,7.677804E4,1.722895E5,2.3865925E5,1.4616025E5,0E0,0E0,0E0,0E0,0E0,0E0,0E0,0E0,0E0,0E0,0E0,0E0,0E0,0E0,0E0,0E0],"parents":[2147483647,0,0,1,1,2,2,3,3,4,4,5,5,6,6,7,7,8,8,9,9,10,10,11,11,12,12,13,13,14,14],"right_children":[2,4,6,8,10,12,14,16,18,20,22,24,26,28,30,-1,-1,-1,-1,-1,-1,-1,-1,-1,-1,-1,-1,-1,-1,-1,-1],"split_conditions":[1.2534529E2,6.735124E1,1.9559392E2,3.6737785E1,8.95298E1,5E0,3.2944846E2,1.953E3,1.48E1,4E0,1.961E3,1.919E3,1.932E3,5.309E1,6.20782E5,-9.9098444E-1,-1.4111235E0,-1.1230919E0,-6.9214135E-1,-6.1478883E-1,4.466281E-2,-1.717724E-2,1.1445633E0,-2.1295216E0,3.267538E-1,7.386041E-1,2.3089023E0,3.3361747E0,6.479097E0,6.411049E0,-5.496071E-1],"split_indices":[62,62,62,62,62,59,62,2,44,59,2,2,2,43,1,0,0,0,0,0,0,0,0,0,0,0,0,0,0,0,0],"split_type":[0,0,0,0,0,0,0,0,0,0,0,0,0,0,0,0,0,0,0,0,0,0,0,0,0,0,0,0,0,0,0],"sum_hessian":[5.462E4,5.2583E4,2.037E3,5.221E3,4.7362E4,1.275E3,7.62E2,2.048E3,3.173E3,4.2142E4,5.22E3,2.62E2,1.013E3,6.56E2,1.06E2,5.84E2,1.464E3,1.957E3,1.216E3,6.091E3,3.6051E4,2.459E3,2.761E3,3.6E1,2.26E2,2.26E2,7.87E2,5.88E2,6.8E1,9.8E1,8E0],"tree_param":{"num_deleted":"0","num_feature":"139","num_nodes":"31","size_leaf_vector":"1"}},{"base_weights":[1.7100394E-2,-1.6748564E0,4.62683E1,-2.1322578E1,2.3786083E-1,2.7919756E1,7.1102196E1,-2.1891298E1,1.2944626E1,-5.1006656E0,2.6941402E0,5.1459763E1,2.0918495E1,6.4015205E1,1.1572896E2,-1.0568775E0,-1.6725225E0,9.0876065E-2,3.6532495E0,7.179979E-1,-3.2373622E-1,9.9150024E-2,8.6345595E-1,3.914859E0,1.4346428E0,1.9518252E-2,1.335867E0,4.442668E0,2.7006304E0,6.0302067E0,-4.9989295E0],"categories":[],"categories_nodes":[],"categories_segments":[],"categories_sizes":[],"default_left":[0,0,0,0,0,0,0,0,0,0,0,0,0,0,0,0,0,0,0,0,0,0,0,0,0,0,0,0,0,0,0],"id":18,"left_children":[1,3,5,7,9,11,13,15,17,19,21,23,25,27,29,-1,-1,-1,-1,-1,-1,-1,-1,-1,-1,-1,-1,-1,-1,-1,-1],"loss_changes":[4.277419E6,1.9816642E6,8.76994E5,9.145075E4,6.301416E5,1.82027E5,2.516165E5,3.938875E4,5.1377547E4,4.0501738E5,3.4109362E5,1.5294875E5,1.0212547E5,1.71349E5,1.28786625E5,0E0,0E0,0E0,0E0,0E0,0E0,0E0,0E0,0E0,0E0,0E0,0E0,0E0,0E0,0E0,0E0],"parents":[2147483647,0,0,1,1,2,2,3,3,4,4,5,5,6,6,7,7,8,8,9,9,10,10,11,11,12,12,13,13,14,14],"right_children":[2,4,6,8,10,12,14,16,18,20,22,24,26,28,30,-1,-1,-1,-1,-1,-1,-1,-1,-1,-1,-1,-1,-1,-1,-1,-1],"split_conditions":[1.2534529E2,6.735124E1,2.2389668E2,1E0,6.4E1,4.445E1,3.2944846E2,6.0370968E1,7.6951614E1,6E0,9.9805435E1,1.9E1,1.2599849E2,7.1E1,8E1,-1.0568775E0,-1.6725225E0,9.0876065E-2,3.6532495E0,7.179979E-1,-3.2373622E-1,9.9150024E-2,8.6345595E-1,3.914859E0,1.4346428E0,1.9518252E-2,1.335867E0,4.442668E0,2.7006304E0,6.0302067E0,-4.9989295E0],"split_indices":[66,66,66,118,45,36,66,33,27,61,66,61,66,37,37,0,0,0,0,0,0,0,0,0,0,0,0,0,0,0,0],"split_type":[0,0,0,0,0,0,0,0,0,0,0,0,0,0,0,0,0,0,0,0,0,0,0,0,0,0,0,0,0,0,0],"sum_hessian":[5.4658E4,5.273E4,1.928E3,4.677E3,4.8053E4,1.11E3,8.18E2,4.601E3,7.6E1,1.5142E4,3.2911E4,2.53E2,8.57E2,7.08E2,1.1E2,4.322E3,2.79E2,6.5E1,1.1E1,9.98E2,1.4144E4,3.1381E4,1.53E3,1.15E2,1.38E2,1.89E2,6.68E2,2.01E2,5.07E2,1.08E2,2E0],"tree_param":{"num_deleted":"0","num_feature":"139","num_nodes":"31","size_leaf_vector":"1"}},{"base_weights":[7.2657995E-2,-3.642299E-1,7.5935486E1,-1.2238651E1,1.8750947E0,1.2269253E2,5.0580322E1,-1.3279162E1,5.3567932E1,2.6035896E1,1.1038406E0,-1.7152832E1,1.3699158E2,3.1362846E1,9.028713E1,-6.986992E-1,9.2059976E-1,2.912658E0,-1.9878689E0,1.1747712E0,1.7350096E1,8.907136E-2,-9.325266E-1,-2.1599188E0,1.9507664E-1,2.3374183E0,8.184346E0,-1.52645E0,2.362512E0,2.8318903E-1,5.01156E0],"categories":[],"categories_nodes":[],"categories_segments":[],"categories_sizes":[],"default_left":[0,0,0,0,0,0,0,0,0,0,0,0,0,0,0,0,0,0,0,0,0,0,0,0,0,0,0,0,0,0,0],"id":19,"left_children":[1,3,5,7,9,11,13,15,17,19,21,23,25,27,29,-1,-1,-1,-1,-1,-1,-1,-1,-1,-1,-1,-1,-1,-1,-1,-1],"loss_changes":[1.8059534E6,1.4406265E6,3.6368025E5,5.893005E5,8.493516E5,2.2031238E5,1.5283353E5,1.8661E5,6.090753E4,1.1415688E6,5.913021E5,6.2006357E3,2.3084612E5,1.3812123E5,5.497125E4,0E0,0E0,0E0,0E0,0E0,0E0,0E0,0E0,0E0,0E0,0E0,0E0,0E0,0E0,0E0,0E0],"parents":[2147483647,0,0,1,1,2,2,3,3,4,4,5,5,6,6,7,7,8,8,9,9,10,10,11,11,12,12,13,13,14,14],"right_children":[2,4,6,8,10,12,14,16,18,20,22,24,26,28,30,-1,-1,-1,-1,-1,-1,-1,-1,-1,-1,-1,-1,-1,-1,-1,-1],"split_conditions":[1E0,3E0,7.1E1,1E0,5.0567E4,6.88E4,5.4E1,1E0,1.24318E5,1E0,5.5E1,8.7E1,5E1,1.704E5,6.88E4,-6.986992E-1,9.2059976E-1,2.912658E0,-1.9878689E0,1.1747712E0,1.7350096E1,8.907136E-2,-9.325266E-1,-2.1599188E0,1.9507664E-1,2.3374183E0,8.184346E0,-1.52645E0,2.362512E0,2.8318903E-1,5.01156E0],"split_indices":[99,59,37,73,1,1,29,132,1,82,61,31,20,1,1,0,0,0,0,0,0,0,0,0,0,0,0,0,0,0,0],"split_type":[0,0,0,0,0,0,0,0,0,0,0,0,0,0,0,0,0,0,0,0,0,0,0,0,0,0,0,0,0,0,0],"sum_hessian":[5.4487E4,5.4176E4,3.11E2,8.595E3,4.5581E4,1.08E2,2.03E2,8.462E3,1.33E2,1.409E3,4.4172E4,1E1,9.8E1,1.38E2,6.5E1,8.281E3,1.81E2,1.27E2,6E0,1.399E3,1E1,4.2708E4,1.464E3,4E0,6E0,2.3E1,7.5E1,2.8E1,1.1E2,7E0,5.8E1],"tree_param":{"num_deleted":"0","num_feature":"139","num_nodes":"31","size_leaf_vector":"1"}},{"base_weights":[5.5838622E-2,2.2512707E1,-5.0127106E0,8.017775E1,1.8089722E1,5.5631673E-1,-1.6185753E1,1.2074817E2,5.505184E1,1.5932317E1,1.01976074E2,-5.258924E-1,6.527527E1,-1.2066245E1,-2.819598E1,2.2824676E0,7.0619836E0,1.4509933E1,2.61273E0,1.708692E0,6.226807E-1,4.2427173E0,6.6339555E0,-7.581518E-1,8.6955585E-2,1.4615636E0,3.9610355E0,-6.35565E-1,1.593037E0,1.8906542E1,-1.4201673E0],"categories":[],"categories_nodes":[],"categories_segments":[],"categories_sizes":[],"default_left":[0,0,0,0,0,0,0,0,0,0,0,0,0,0,0,0,0,0,0,0,0,0,0,0,0,0,0,0,0,0,0],"id":20,"left_children":[1,3,5,7,9,11,13,15,17,19,21,23,25,27,29,-1,-1,-1,-1,-1,-1,-1,-1,-1,-1,-1,-1,-1,-1,-1,-1],"loss_changes":[6.2153445E6,2.5630935E6,2.772043E6,7.232205E5,1.6886995E6,2.0824468E6,7.32848E5,4.1366875E5,2.7688225E5,5.7747575E5,1.11753E5,9.6955825E5,2.4348E5,3.1311325E5,3.295705E5,0E0,0E0,0E0,0E0,0E0,0E0,0E0,0E0,0E0,0E0,0E0,0E0,0E0,0E0,0E0,0E0],"parents":[2147483647,0,0,1,1,2,2,3,3,4,4,5,5,6,6,7,7,8,8,9,9,10,10,11,11,12,12,13,13,14,14],"right_children":[2,4,6,8,10,12,14,16,18,20,22,24,26,28,30,-1,-1,-1,-1,-1,-1,-1,-1,-1,-1,-1,-1,-1,-1,-1,-1],"split_conditions":[4.5E1,2E0,7.4E1,1E0,1.3679323E2,1.5704166E2,9.5E1,7.707439E1,1.4568E4,9E0,5.8E1,7.707439E1,4E0,1.1890041E2,8E1,2.2824676E0,7.0619836E0,1.4509933E1,2.61273E0,1.708692E0,6.226807E-1,4.2427173E0,6.6339555E0,-7.581518E-1,8.6955585E-2,1.4615636E0,3.9610355E0,-6.35565E-1,1.593037E0,1.8906542E1,-1.4201673E0],"split_indices":[3,3,3,60,62,62,3,62,1,3,26,62,59,62,19,0,0,0,0,0,0,0,0,0,0,0,0,0,0,0,0],"split_type":[0,0,0,0,0,0,0,0,0,0,0,0,0,0,0,0,0,0,0,0,0,0,0,0,0,0,0,0,0,0,0],"sum_hessian":[5.4603E4,1.0054E4,4.4549E4,7.15E2,9.339E3,2.9731E4,1.4818E4,2.72E2,4.43E2,9.106E3,2.33E2,2.9243E4,4.88E2,1.1035E4,3.783E3,5.9E1,2.13E2,4E0,4.39E2,1.457E3,7.649E3,1.52E2,8.1E1,3.918E3,2.5325E4,1.37E2,3.51E2,1.0876E4,1.59E2,1E0,3.782E3],"tree_param":{"num_deleted":"0","num_feature":"139","num_nodes":"31","size_leaf_vector":"1"}},{"base_weights":[-1.0523083E-1,-1.7324948E0,4.1277092E1,-1.5193366E1,5.555643E-1,2.7524363E1,6.428163E1,-1.9239153E1,-9.350924E0,-7.0744767E0,2.2319467E0,1.0075119E1,3.265977E1,5.7663174E1,1.0388839E2,-1.5125685E0,-9.191188E-1,-2.1872652E-1,-7.403304E-1,-5.974209E-1,3.726126E-1,6.617876E-2,9.2166394E-1,5.5123247E-2,3.1316702E0,1.164503E1,1.6011603E0,6.4337883E0,2.698526E0,4.8362994E0,1.167606E1],"categories":[],"categories_nodes":[],"categories_segments":[],"categories_sizes":[],"default_left":[0,0,0,0,0,0,0,0,0,0,0,0,0,0,0,0,0,0,0,0,0,0,0,0,0,0,0,0,0,0,0],"id":21,"left_children":[1,3,5,7,9,11,13,15,17,19,21,23,25,27,29,-1,-1,-1,-1,-1,-1,-1,-1,-1,-1,-1,-1,-1,-1,-1,-1],"loss_changes":[3.6664628E6,1.6134896E6,6.4996375E5,1.797235E5,5.727525E5,1.1535625E5,1.95854E5,4.1863625E4,8.453347E4,5.711814E5,5.402598E5,1.390492E5,1.1962575E5,1.6664825E5,7.8617E4,0E0,0E0,0E0,0E0,0E0,0E0,0E0,0E0,0E0,0E0,0E0,0E0,0E0,0E0,0E0,0E0],"parents":[2147483647,0,0,1,1,2,2,3,3,4,4,5,5,6,6,7,7,8,8,9,9,10,10,11,11,12,12,13,13,14,14],"right_children":[2,4,6,8,10,12,14,16,18,20,22,24,26,28,30,-1,-1,-1,-1,-1,-1,-1,-1,-1,-1,-1,-1,-1,-1,-1,-1],"split_conditions":[1.2670429E2,7.892195E1,2.2389668E2,7.3622604E1,4E0,5E0,3.2944846E2,3.639E1,3.7339287E1,8.1797874E1,1.00965935E2,1.839452E2,-3E0,3.1E1,1.48E2,-1.5125685E0,-9.191188E-1,-2.1872652E-1,-7.403304E-1,-5.974209E-1,3.726126E-1,6.617876E-2,9.2166394E-1,5.5123247E-2,3.1316702E0,1.164503E1,1.6011603E0,6.4337883E0,2.698526E0,4.8362994E0,1.167606E1],"split_indices":[65,65,66,66,59,59,66,43,9,65,65,65,11,58,58,0,0,0,0,0,0,0,0,0,0,0,0,0,0,0,0],"split_type":[0,0,0,0,0,0,0,0,0,0,0,0,0,0,0,0,0,0,0,0,0,0,0,0,0,0,0,0,0,0,0],"sum_hessian":[5.4445E4,5.2386E4,2.059E3,7.61E3,4.4776E4,1.29E3,7.69E2,4.495E3,3.115E3,8.065E3,3.6711E4,2.94E2,9.96E2,6.61E2,1.08E2,3.22E2,4.173E3,1.63E3,1.485E3,6.039E3,2.026E3,3.4763E4,1.948E3,2.52E2,4.2E1,2E0,9.94E2,3.1E1,6.3E2,1.04E2,4E0],"tree_param":{"num_deleted":"0","num_feature":"139","num_nodes":"31","size_leaf_vector":"1"}},{"base_weights":[-1.02989174E-1,2.6245588E1,-3.9730208E0,6.888958E1,1.9400629E1,1.9622216E0,-1.3796078E1,5.8476757E1,1.3042146E2,1.7494293E1,1.0055561E2,9.60325E-1,6.377065E1,-1.4058582E1,1.6737805E2,2.4572732E0,5.82445E0,4.6770105E0,8.271977E0,2.0626957E-2,1.0380937E0,4.6445312E0,1.4293304E1,-7.39728E-1,1.3426708E-1,3.6822777E0,6.794444E-1,-4.9746576E-1,-1.3443905E0,-3.3503213E0,2.7454695E1],"categories":[],"categories_nodes":[],"categories_segments":[],"categories_sizes":[],"default_left":[0,0,0,0,0,0,0,0,0,0,0,0,0,0,0,0,0,0,0,0,0,0,0,0,0,0,0,0,0,0,0],"id":22,"left_children":[1,3,5,7,9,11,13,15,17,19,21,23,25,27,29,-1,-1,-1,-1,-1,-1,-1,-1,-1,-1,-1,-1,-1,-1,-1,-1],"loss_changes":[5.5631705E6,2.038144E6,2.7734638E6,6.113095E5,9.298965E5,1.836282E6,8.544685E5,4.424955E5,1.640445E5,3.284685E5,1.69461E5,7.931315E5,2.3338988E5,9.4297625E5,2.3629678E6,0E0,0E0,0E0,0E0,0E0,0E0,0E0,0E0,0E0,0E0,0E0,0E0,0E0,0E0,0E0,0E0],"parents":[2147483647,0,0,1,1,2,2,3,3,4,4,5,5,6,6,7,7,8,8,9,9,10,10,11,11,12,12,13,13,14,14],"right_children":[2,4,6,8,10,12,14,16,18,20,22,24,26,28,30,-1,-1,-1,-1,-1,-1,-1,-1,-1,-1,-1,-1,-1,-1,-1,-1],"split_conditions":[3.3E1,3E0,6.7E1,1E0,1.9559392E2,1.839452E2,1E0,8.989574E1,7.8564514E1,7.707439E1,3.2944846E2,6.91334E1,5.740274E1,9.4E1,6E0,2.4572732E0,5.82445E0,4.6770105E0,8.271977E0,2.0626957E-2,1.0380937E0,4.6445312E0,1.4293304E1,-7.39728E-1,1.3426708E-1,3.6822777E0,6.794444E-1,-4.9746576E-1,-1.3443905E0,-3.3503213E0,2.7454695E1],"split_indices":[3,3,3,81,62,62,75,62,24,62,62,62,46,3,59,0,0,0,0,0,0,0,0,0,0,0,0,0,0,0,0],"split_type":[0,0,0,0,0,0,0,0,0,0,0,0,0,0,0,0,0,0,0,0,0,0,0,0,0,0,0,0,0,0,0],"sum_hessian":[5.4555E4,6.986E3,4.7569E4,9.65E2,6.021E3,2.9653E4,1.7916E4,8.27E2,1.38E2,5.884E3,1.37E2,2.9181E4,4.72E2,1.7891E4,2.5E1,7.14E2,1.13E2,6.9E1,6.9E1,9.45E2,4.939E3,1.33E2,4E0,2.879E3,2.6302E4,3.94E2,7.8E1,1.3552E4,4.339E3,1.6E1,9E0],"tree_param":{"num_deleted":"0","num_feature":"139","num_nodes":"31","size_leaf_vector":"1"}},{"base_weights":[-1.1120637E-1,1.9934788E1,-4.6302013E0,6.3831684E1,1.5299917E1,-1.1602908E0,-1.9195353E1,5.5494984E1,1.1564196E2,1.3472014E1,9.364923E1,-2.3801887E0,3.7934635E1,-1.9765476E1,2.6890765E2,2.2578027E0,4.5592837E0,9.122932E0,4.1766353E0,1.158388E0,4.614218E-1,3.8424745E0,6.629931E0,-7.1425575E-1,-1.8884525E-2,1.6318859E0,5.005831E0,-8.2451624E-1,-1.8170385E0,-3.199143E0,2.5416466E1],"categories":[],"categories_nodes":[],"categories_segments":[],"categories_sizes":[],"default_left":[0,0,0,0,0,0,0,0,0,0,0,0,0,0,0,0,0,0,0,0,0,0,0,0,0,0,0,0,0,0,0],"id":23,"left_children":[1,3,5,7,9,11,13,15,17,19,21,23,25,27,29,-1,-1,-1,-1,-1,-1,-1,-1,-1,-1,-1,-1,-1,-1,-1,-1],"loss_changes":[4.9464545E6,2.042743E6,2.251979E6,4.0780025E5,1.3001328E6,1.7163756E6,1.41347E6,3.0141725E5,2.6795612E5,3.6519188E5,1.25258375E5,8.3197256E5,3.5541938E5,4.6393125E5,1.3874448E6,0E0,0E0,0E0,0E0,0E0,0E0,0E0,0E0,0E0,0E0,0E0,0E0,0E0,0E0,0E0,0E0],"parents":[2147483647,0,0,1,1,2,2,3,3,4,4,5,5,6,6,7,7,8,8,9,9,10,10,11,11,12,12,13,13,14,14],"right_children":[2,4,6,8,10,12,14,16,18,20,22,24,26,28,30,-1,-1,-1,-1,-1,-1,-1,-1,-1,-1,-1,-1,-1,-1,-1,-1],"split_conditions":[4.5E1,3E0,8.6E1,8.989574E1,1.9559392E2,1.2670429E2,1E0,2.8E1,1.22E1,1.7E1,6.364516E1,7.707439E1,1E0,1E2,6E0,2.2578027E0,4.5592837E0,9.122932E0,4.1766353E0,1.158388E0,4.614218E-1,3.8424745E0,6.629931E0,-7.1425575E-1,-1.8884525E-2,1.6318859E0,5.005831E0,-8.2451624E-1,-1.8170385E0,-3.199143E0,2.5416466E1],"split_indices":[3,3,3,62,62,62,75,61,4,3,18,62,76,3,59,0,0,0,0,0,0,0,0,0,0,0,0,0,0,0,0],"split_type":[0,0,0,0,0,0,0,0,0,0,0,0,0,0,0,0,0,0,0,0,0,0,0,0,0,0,0,0,0,0,0],"sum_hessian":[5.4602E4,1.0044E4,4.4558E4,9.58E2,9.086E3,3.5986E4,8.572E3,8.27E2,1.31E2,8.88E3,2.06E2,3.4898E4,1.088E3,8.556E3,1.6E1,6.43E2,1.84E2,4.1E1,9E1,2.702E3,6.178E3,1.46E2,6E1,5.024E3,2.9874E4,1.004E3,8.4E1,7.146E3,1.41E3,7E0,9E0],"tree_param":{"num_deleted":"0","num_feature":"139","num_nodes":"31","size_leaf_vector":"1"}},{"base_weights":[4.3944452E-2,2.9372652E1,-2.7344294E0,6.931259E1,2.2212202E1,2.76374E0,-1.25608835E1,1.04825836E2,4.7160664E1,2.0207258E1,9.95895E1,1.6118635E0,5.595836E1,-9.376502E0,-2.4263617E1,2.1798244E0,6.2961173E0,4.2894942E-1,2.7240815E0,8.4452075E-1,2.7265928E0,3.2093277E0,6.5220733E0,-6.923918E-1,1.5688264E-1,2.0751748E0,3.9737923E0,-4.926396E-1,1.9750808E0,1.8478786E1,-1.2231549E0],"categories":[],"categories_nodes":[],"categories_segments":[],"categories_sizes":[],"default_left":[0,0,0,0,0,0,0,0,0,0,0,0,0,0,0,0,0,0,0,0,0,0,0,0,0,0,0,0,0,0,0],"id":24,"left_children":[1,3,5,7,9,11,13,15,17,19,21,23,25,27,29,-1,-1,-1,-1,-1,-1,-1,-1,-1,-1,-1,-1,-1,-1,-1,-1],"loss_changes":[4.4502815E6,1.3500395E6,2.6953595E6,5.5989775E5,6.19932E5,1.9600536E6,6.6679625E5,3.497345E5,1.2494256E5,4.44116E5,1.0194469E5,7.386623E5,2.27182E5,3.2798738E5,3.097825E5,0E0,0E0,0E0,0E0,0E0,0E0,0E0,0E0,0E0,0E0,0E0,0E0,0E0,0E0,0E0,0E0],"parents":[2147483647,0,0,1,1,2,2,3,3,4,4,5,5,6,6,7,7,8,8,9,9,10,10,11,11,12,12,13,13,14,14],"right_children":[2,4,6,8,10,12,14,16,18,20,22,24,26,28,30,-1,-1,-1,-1,-1,-1,-1,-1,-1,-1,-1,-1,-1,-1,-1,-1],"split_conditions":[2.2E1,2E0,6.7E1,1E0,1.3679323E2,1.3759575E2,9.5E1,4.7E1,5E0,1E0,2.4E1,6.2872612E1,2.4834059E2,1.3759575E2,5E1,2.1798244E0,6.2961173E0,4.2894942E-1,2.7240815E0,8.4452075E-1,2.7265928E0,3.2093277E0,6.5220733E0,-6.923918E-1,1.5688264E-1,2.0751748E0,3.9737923E0,-4.926396E-1,1.9750808E0,1.8478786E1,-1.2231549E0],"split_indices":[3,3,3,64,62,62,3,29,59,81,38,62,62,65,40,0,0,0,0,0,0,0,0,0,0,0,0,0,0,0,0],"split_type":[0,0,0,0,0,0,0,0,0,0,0,0,0,0,0,0,0,0,0,0,0,0,0,0,0,0,0,0,0,0,0],"sum_hessian":[5.4612E4,4.725E3,4.9887E4,7.17E2,4.008E3,3.1989E4,1.7898E4,2.74E2,4.43E2,3.908E3,1E2,3.1312E4,6.77E2,1.4071E4,3.827E3,7.1E1,2.03E2,7.1E1,3.72E2,3.565E3,3.43E2,4.8E1,5.2E1,2.812E3,2.85E4,4.21E2,2.56E2,1.3936E4,1.35E2,1E0,3.826E3],"tree_param":{"num_deleted":"0","num_feature":"139","num_nodes":"31","size_leaf_vector":"1"}},{"base_weights":[1.042428E-1,4.3230606E1,-1.7194513E0,3.5846504E1,9.805178E1,3.8200889E0,-1.1715598E1,3.323537E1,1.6300677E2,3.404461E1,1.1814428E2,2.8314986E0,6.421738E1,-1.1929526E1,1.7864764E2,2.6978757E0,1.1953998E0,4.242464E0,1.1650697E1,4.471498E-1,2.495304E0,4.0603914E0,6.9222603E0,-6.359014E-1,2.1686137E-1,2.5827093E0,4.6181297E0,-4.9040744E-1,-1.5136002E0,1.790031E1,-2.7223704E0],"categories":[],"categories_nodes":[],"categories_segments":[],"categories_sizes":[],"default_left":[0,0,0,0,0,0,0,0,0,0,0,0,0,0,0,0,0,0,0,0,0,0,0,0,0,0,0,0,0,0,0],"id":25,"left_children":[1,3,5,7,9,11,13,15,17,19,21,23,25,27,29,-1,-1,-1,-1,-1,-1,-1,-1,-1,-1,-1,-1,-1,-1,-1,-1],"loss_changes":[4.2880335E6,8.91914E5,2.8966062E6,6.4237725E5,3.3292675E5,2.0094761E6,7.6171675E5,3.68461E5,1.9362062E5,2.5035188E4,1.3797625E5,7.754358E5,1.86877E5,7.24699E5,8.974521E5,0E0,0E0,0E0,0E0,0E0,0E0,0E0,0E0,0E0,0E0,0E0,0E0,0E0,0E0,0E0,0E0],"parents":[2147483647,0,0,1,1,2,2,3,3,4,4,5,5,6,6,7,7,8,8,9,9,10,10,11,11,12,12,13,13,14,14],"right_children":[2,4,6,8,10,12,14,16,18,20,22,24,26,28,30,-1,-1,-1,-1,-1,-1,-1,-1,-1,-1,-1,-1,-1,-1,-1,-1],"split_conditions":[9E0,1E0,6.5E1,1.4739046E2,5.34E4,1.8989235E2,1E0,2E0,6.1E1,8.7E1,6.3E1,6.735124E1,6.1E1,9.9E1,2.3E1,2.6978757E0,1.1953998E0,4.242464E0,1.1650697E1,4.471498E-1,2.495304E0,4.0603914E0,6.9222603E0,-6.359014E-1,2.1686137E-1,2.5827093E0,4.6181297E0,-4.9040744E-1,-1.5136002E0,1.790031E1,-2.7223704E0],"split_indices":[3,81,3,66,1,62,88,3,23,31,23,62,23,3,35,0,0,0,0,0,0,0,0,0,0,0,0,0,0,0,0],"split_type":[0,0,0,0,0,0,0,0,0,0,0,0,0,0,0,0,0,0,0,0,0,0,0,0,0,0,0,0,0,0,0],"sum_hessian":[5.4519E4,2.211E3,5.2308E4,1.95E3,2.61E2,3.3657E4,1.8651E4,1.912E3,3.8E1,6.3E1,1.98E2,3.3116E4,5.41E2,1.8631E4,2E1,5.92E2,1.32E3,1.9E1,1.9E1,2.5E1,3.8E1,7.2E1,1.26E2,2.923E3,3.0193E4,3.76E2,1.65E2,1.6701E4,1.93E3,1.1E1,9E0],"tree_param":{"num_deleted":"0","num_feature":"139","num_nodes":"31","size_leaf_vector":"1"}},{"base_weights":[-9.755965E-2,-1.6972517E0,3.0063263E1,-1.248521E1,3.900003E-1,2.158814E1,5.5139008E1,-1.6458836E1,-8.338093E0,-8.719132E0,1.299863E0,2.3404722E0,2.8396332E1,4.950286E1,8.549081E1,-1.3356223E0,-7.9187804E-1,-4.4347316E-1,1.2404338E0,-5.187038E-1,-1.24452256E-1,1.8984681E-2,5.112489E-1,2.1804912E-1,-2.807992E0,1.8870728E1,1.3958261E0,1.7210869E0,3.5550694E0,4.51617E0,-5.60734E0],"categories":[],"categories_nodes":[],"categories_segments":[],"categories_sizes":[],"default_left":[0,0,0,0,0,0,0,0,0,0,0,0,0,0,0,0,0,0,0,0,0,0,0,0,0,0,0,0,0,0,0],"id":26,"left_children":[1,3,5,7,9,11,13,15,17,19,21,23,25,27,29,-1,-1,-1,-1,-1,-1,-1,-1,-1,-1,-1,-1,-1,-1,-1,-1],"loss_changes":[2.6266252E6,1.1640985E6,5.815395E5,1.37974E5,3.5903353E5,2.687003E5,1.141465E5,2.68355E4,7.248691E4,4.0535438E4,3.2345E5,6.3718555E4,2.4316962E5,1.8843038E5,1.1232525E5,0E0,0E0,0E0,0E0,0E0,0E0,0E0,0E0,0E0,0E0,0E0,0E0,0E0,0E0,0E0,0E0],"parents":[2147483647,0,0,1,1,2,2,3,3,4,4,5,5,6,6,7,7,8,8,9,9,10,10,11,11,12,12,13,13,14,14],"right_children":[2,4,6,8,10,12,14,16,18,20,22,24,26,28,30,-1,-1,-1,-1,-1,-1,-1,-1,-1,-1,-1,-1,-1,-1,-1,-1],"split_conditions":[1.1041848E2,7.707439E1,2.4113516E2,4.211254E1,3.743E1,4E0,3.2944846E2,3.639E1,7.281E1,8.370916E1,8.95298E1,1E0,1.567742E1,5.9E1,8E1,-1.3356223E0,-7.9187804E-1,-4.4347316E-1,1.2404338E0,-5.187038E-1,-1.24452256E-1,1.8984681E-2,5.112489E-1,2.1804912E-1,-2.807992E0,1.8870728E1,1.3958261E0,1.7210869E0,3.5550694E0,4.51617E0,-5.60734E0],"split_indices":[62,62,62,62,43,59,62,43,43,65,62,86,6,26,37,0,0,0,0,0,0,0,0,0,0,0,0,0,0,0,0],"split_type":[0,0,0,0,0,0,0,0,0,0,0,0,0,0,0,0,0,0,0,0,0,0,0,0,0,0,0,0,0,0,0],"sum_hessian":[5.4438E4,5.1697E4,2.741E3,8.38E3,4.3317E4,2.05E3,6.91E2,4.278E3,4.102E3,3.933E3,3.9384E4,5.36E2,1.514E3,5.85E2,1.06E2,2.42E2,4.036E3,4.038E3,6.4E1,3.107E3,8.26E2,3.5704E4,3.68E3,5.19E2,1.7E1,1E0,1.513E3,3.46E2,2.39E2,1.04E2,2E0],"tree_param":{"num_deleted":"0","num_feature":"139","num_nodes":"31","size_leaf_vector":"1"}},{"base_weights":[2.4032068E-2,-7.8307743E0,2.26895E0,-9.103682E0,1.9164082E1,1.8785192E0,5.041924E1,-9.2028885E0,1.3546198E2,1.7713156E2,1.7376709E1,2.721473E1,1.1961685E0,-1.4297293E1,6.2645683E1,-4.6868935E-1,3.3505151E0,-6.0560775E0,1.2058837E1,1.4192019E1,-1.2095369E0,-6.653213E-1,1.2354661E0,1.2066706E0,1.6545568E1,6.8525165E-2,-2.482109E0,1.4938341E0,-1.434077E0,1.814497E1,2.801758E0],"categories":[],"categories_nodes":[],"categories_segments":[],"categories_sizes":[],"default_left":[0,0,0,0,0,0,0,0,0,0,0,0,0,0,0,0,0,0,0,0,0,0,0,0,0,0,0,0,0,0,0],"id":27,"left_children":[1,3,5,7,9,11,13,15,17,19,21,23,25,27,29,-1,-1,-1,-1,-1,-1,-1,-1,-1,-1,-1,-1,-1,-1,-1,-1],"loss_changes":[9.6133756E5,4.1657256E5,7.969979E5,1.6722488E5,1.5108344E5,7.2710825E5,2.70713E5,1.51272E5,2.4620903E5,1.3576348E5,1.2204708E5,1.02418494E6,3.6307444E5,3.580442E4,5.4931225E5,0E0,0E0,0E0,0E0,0E0,0E0,0E0,0E0,0E0,0E0,0E0,0E0,0E0,0E0,0E0,0E0],"parents":[2147483647,0,0,1,1,2,2,3,3,4,4,5,5,6,6,7,7,8,8,9,9,10,10,11,11,12,12,13,13,14,14],"right_children":[2,4,6,8,10,12,14,16,18,20,22,24,26,28,30,-1,-1,-1,-1,-1,-1,-1,-1,-1,-1,-1,-1,-1,-1,-1,-1],"split_conditions":[4E0,1E0,1E0,1E0,5.025E1,5.0567E4,6.88E4,1E0,1.92035E5,5.3676E4,2.4032E4,1E0,1E0,4.206E4,6.9138E4,-4.6868935E-1,3.3505151E0,-6.0560775E0,1.2058837E1,1.4192019E1,-1.2095369E0,-6.653213E-1,1.2354661E0,1.2066706E0,1.6545568E1,6.8525165E-2,-2.482109E0,1.4938341E0,-1.434077E0,1.814497E1,2.801758E0],"split_indices":[59,69,74,70,15,1,1,109,1,1,1,109,109,1,1,0,0,0,0,0,0,0,0,0,0,0,0,0,0,0,0],"split_type":[0,0,0,0,0,0,0,0,0,0,0,0,0,0,0,0,0,0,0,0,0,0,0,0,0,0,0,0,0,0,0],"sum_hessian":[5.4516E4,1.2117E4,4.2399E4,1.1572E4,5.45E2,4.2059E4,3.4E2,1.1565E4,7E0,5E0,5.4E2,1.102E3,4.0957E4,5.4E1,2.86E2,1.154E4,2.5E1,2E0,5E0,3E0,2E0,1.04E2,4.36E2,1.092E3,1E1,4.0818E4,1.39E2,1.3E1,4.1E1,5E0,2.81E2],"tree_param":{"num_deleted":"0","num_feature":"139","num_nodes":"31","size_leaf_vector":"1"}},{"base_weights":[5.536443E-2,-1.604559E0,2.5025583E1,-1.1958597E1,2.0786346E-1,1.9235308E1,4.8372913E1,1.2369762E2,-1.2493988E1,-6.368476E0,1.5889969E0,2.409524E1,-4.967979E0,4.482613E1,1.3504561E2,2.3909288E1,2.5384612E0,-7.6656616E-1,-4.0096146E-1,-4.8691168E-1,3.5129496E-1,1.3632811E0,5.523261E-2,2.1150448E0,1.1420226E0,-5.3812367E-1,1.3042735E0,1.5714915E0,2.7614324E0,2.9917572E0,9.310546E0],"categories":[],"categories_nodes":[],"categories_segments":[],"categories_sizes":[],"default_left":[0,0,0,0,0,0,0,0,0,0,0,0,0,0,0,0,0,0,0,0,0,0,0,0,0,0,0,0,0,0,0],"id":28,"left_children":[1,3,5,7,9,11,13,15,17,19,21,23,25,27,29,-1,-1,-1,-1,-1,-1,-1,-1,-1,-1,-1,-1,-1,-1,-1,-1],"loss_changes":[2.257541E6,9.5839525E5,4.58031E5,5.5410775E5,3.9478503E5,3.202985E5,2.0114025E5,7.512905E5,9.6103E4,3.4057284E5,4.466956E5,5.0821625E4,8.233294E4,8.8705625E4,8.8910375E4,0E0,0E0,0E0,0E0,0E0,0E0,0E0,0E0,0E0,0E0,0E0,0E0,0E0,0E0,0E0,0E0],"parents":[2147483647,0,0,1,1,2,2,3,3,4,4,5,5,6,6,7,7,8,8,9,9,10,10,11,11,12,12,13,13,14,14],"right_children":[2,4,6,8,10,12,14,16,18,20,22,24,26,28,30,-1,-1,-1,-1,-1,-1,-1,-1,-1,-1,-1,-1,-1,-1,-1,-1],"split_conditions":[1.0862912E2,7.892195E1,1.9559392E2,1.0875E4,4E0,4.0931034E1,8.001613E1,3.7339287E1,6.91334E1,8.1797874E1,5.0567E4,6.72E1,1.5704166E2,5.4E1,1.31477E5,2.3909288E1,2.5384612E0,-7.6656616E-1,-4.0096146E-1,-4.8691168E-1,3.5129496E-1,1.3632811E0,5.523261E-2,2.1150448E0,1.1420226E0,-5.3812367E-1,1.3042735E0,1.5714915E0,2.7614324E0,2.9917572E0,9.310546E0],"split_indices":[65,65,65,1,59,9,24,9,65,65,1,30,65,26,1,0,0,0,0,0,0,0,0,0,0,0,0,0,0,0,0],"split_type":[0,0,0,0,0,0,0,0,0,0,0,0,0,0,0,0,0,0,0,0,0,0,0,0,0,0,0,0,0,0,0],"sum_hessian":[5.4464E4,5.107E4,3.394E3,7.607E3,4.3463E4,2.721E3,6.73E2,2.9E1,7.578E3,7.543E3,3.592E4,2.266E3,4.55E2,6.48E2,2.5E1,4E0,2.5E1,4.636E3,2.942E3,6.027E3,1.516E3,6.64E2,3.5256E4,1.44E2,2.122E3,3.84E2,7.1E1,2.85E2,3.63E2,1.1E1,1.4E1],"tree_param":{"num_deleted":"0","num_feature":"139","num_nodes":"31","size_leaf_vector":"1"}},{"base_weights":[7.476661E-2,1.7811272E1,-3.943743E0,6.529129E1,1.4191794E1,-1.1471502E0,-1.6823303E1,9.501236E1,4.6962387E1,1.2697439E1,7.2919334E1,-2.114871E0,3.0397871E1,-1.7443062E1,2.1739075E2,6.9756684E0,3.8315227E0,-6.492873E-1,2.5830739E0,1.3434896E0,5.026087E-1,3.016671E0,5.059242E0,-5.804E-1,-2.6025701E-2,1.3150352E0,3.774656E0,-7.2658324E-1,-1.5597371E0,-3.077809E0,2.3828745E1],"categories":[],"categories_nodes":[],"categories_segments":[],"categories_sizes":[],"default_left":[0,0,0,0,0,0,0,0,0,0,0,0,0,0,0,0,0,0,0,0,0,0,0,0,0,0,0,0,0,0,0],"id":29,"left_children":[1,3,5,7,9,11,13,15,17,19,21,23,25,27,29,-1,-1,-1,-1,-1,-1,-1,-1,-1,-1,-1,-1,-1,-1,-1,-1],"loss_changes":[3.8855895E6,1.7296312E6,1.6008762E6,3.83948E5,8.203304E5,1.1148412E6,1.1547352E6,2.10991E5,1.2546469E5,3.4189775E5,7.64285E4,5.362727E5,1.9885144E5,3.161965E5,1.547607E6,0E0,0E0,0E0,0E0,0E0,0E0,0E0,0E0,0E0,0E0,0E0,0E0,0E0,0E0,0E0,0E0],"parents":[2147483647,0,0,1,1,2,2,3,3,4,4,5,5,6,6,7,7,8,8,9,9,10,10,11,11,12,12,13,13,14,14],"right_children":[2,4,6,8,10,12,14,16,18,20,22,24,26,28,30,-1,-1,-1,-1,-1,-1,-1,-1,-1,-1,-1,-1,-1,-1,-1,-1],"split_conditions":[4.5E1,2E0,8.7E1,1E0,1.4739046E2,1.2670429E2,1E0,1.22E1,5.930645E1,9E0,6.364516E1,7.707439E1,1E0,1E2,6E0,6.9756684E0,3.8315227E0,-6.492873E-1,2.5830739E0,1.3434896E0,5.026087E-1,3.016671E0,5.059242E0,-5.804E-1,-2.6025701E-2,1.3150352E0,3.774656E0,-7.2658324E-1,-1.5597371E0,-3.077809E0,2.3828745E1],"split_indices":[3,3,3,60,66,62,88,4,18,3,18,62,88,3,59,0,0,0,0,0,0,0,0,0,0,0,0,0,0,0,0],"split_type":[0,0,0,0,0,0,0,0,0,0,0,0,0,0,0,0,0,0,0,0,0,0,0,0,0,0,0,0,0,0,0],"sum_hessian":[5.4514E4,1.0069E4,4.4445E4,7.12E2,9.357E3,3.6517E4,7.928E3,2.7E2,4.42E2,9.126E3,2.31E2,3.5431E4,1.086E3,7.908E3,2E1,7.7E1,1.93E2,3.2E1,4.1E2,1.434E3,7.692E3,1.62E2,6.9E1,5.094E3,3.0337E4,9.97E2,8.9E1,6.528E3,1.38E3,1E1,1E1],"tree_param":{"num_deleted":"0","num_feature":"139","num_nodes":"31","size_leaf_vector":"1"}},{"base_weights":[-1.4505525E-2,-1.337324E0,2.5523191E1,-1.0792392E1,4.7746736E-1,1.7982742E1,4.387337E1,4.9010105E1,-1.1553129E1,-7.693192E0,1.3060927E0,-6.413566E0,2.265839E1,4.1137196E1,1.24969864E2,5.654575E-1,2.5236027E1,-7.3753357E-1,-4.0667892E-1,-6.3478965E-1,-2.311211E-1,2.8178558E-1,-2.4399057E-2,-1.3014742E0,2.8180233E-1,1.0762601E0,2.7029061E0,1.8966868E0,3.2685745E0,1.0662149E1,4.9000754E0],"categories":[],"categories_nodes":[],"categories_segments":[],"categories_sizes":[],"default_left":[0,0,0,0,0,0,0,0,0,0,0,0,0,0,0,0,0,0,0,0,0,0,0,0,0,0,0,0,0,0,0],"id":30,"left_children":[1,3,5,7,9,11,13,15,17,19,21,23,25,27,29,-1,-1,-1,-1,-1,-1,-1,-1,-1,-1,-1,-1,-1,-1,-1,-1],"loss_changes":[1.8411051E6,8.891147E5,3.7059225E5,3.8016775E5,2.9434034E5,2.1733181E5,1.6815838E5,1.7982674E6,8.99775E4,6.143475E4,3.0659988E5,7.271051E4,5.5696188E4,5.6288875E4,3.8616375E4,0E0,0E0,0E0,0E0,0E0,0E0,0E0,0E0,0E0,0E0,0E0,0E0,0E0,0E0,0E0,0E0],"parents":[2147483647,0,0,1,1,2,2,3,3,4,4,5,5,6,6,7,7,8,8,9,9,10,10,11,11,12,12,13,13,14,14],"right_children":[2,4,6,8,10,12,14,16,18,20,22,24,26,28,30,-1,-1,-1,-1,-1,-1,-1,-1,-1,-1,-1,-1,-1,-1,-1,-1],"split_conditions":[1.1315163E2,7.707439E1,1.8989235E2,1.0875E4,3.743E1,9.6E0,8.001613E1,1E0,1.48E1,5.6067E4,1E0,3.3863E4,3.4E2,1.7E1,6.9138E4,5.654575E-1,2.5236027E1,-7.3753357E-1,-4.0667892E-1,-6.3478965E-1,-2.311211E-1,2.8178558E-1,-2.4399057E-2,-1.3014742E0,2.8180233E-1,1.0762601E0,2.7029061E0,1.8966868E0,3.2685745E0,1.0662149E1,4.9000754E0],"split_indices":[62,62,62,1,43,44,24,82,44,1,79,1,55,61,1,0,0,0,0,0,0,0,0,0,0,0,0,0,0,0,0],"split_type":[0,0,0,0,0,0,0,0,0,0,0,0,0,0,0,0,0,0,0,0,0,0,0,0,0,0,0,0,0,0,0],"sum_hessian":[5.4498E4,5.1815E4,2.683E3,8.343E3,4.3472E4,1.903E3,7.8E2,1.04E2,8.239E3,4.002E3,3.947E4,3.06E2,1.597E3,7.56E2,2.4E1,9.7E1,7E0,4.256E3,3.983E3,1.521E3,2.481E3,1.1563E4,2.7907E4,1.16E2,1.9E2,1.543E3,5.4E1,6.7E2,8.6E1,4E0,2E1],"tree_param":{"num_deleted":"0","num_feature":"139","num_nodes":"31","size_leaf_vector":"1"}},{"base_weights":[-1.3051733E-2,1.5457333E1,-4.0091667E0,5.2070747E1,1.1970703E1,-1.5094436E0,-1.7248018E1,1.00812E1,5.9692993E1,1.0547848E1,6.634772E1,-2.2351038E0,2.6455236E1,-1.385919E1,-3.0309116E1,-7.8849E-1,1.1140686E0,4.575661E0,2.1588535E0,9.483264E-1,3.7097305E-1,2.7887714E0,5.2465816E0,-6.756922E-1,-6.4385064E-2,1.0594438E0,3.876262E0,8.378825E0,-6.994607E-1,-1.5605807E0,2.54179E0],"categories":[],"categories_nodes":[],"categories_segments":[],"categories_sizes":[],"default_left":[0,0,0,0,0,0,0,0,0,0,0,0,0,0,0,0,0,0,0,0,0,0,0,0,0,0,0,0,0,0,0],"id":31,"left_children":[1,3,5,7,9,11,13,15,17,19,21,23,25,27,29,-1,-1,-1,-1,-1,-1,-1,-1,-1,-1,-1,-1,-1,-1,-1,-1],"loss_changes":[3.3780468E6,1.4313092E6,1.4370575E6,3.1145175E5,7.9180775E5,7.4133675E5,3.0485388E5,4.797476E4,4.296195E5,2.627805E5,1.006145E5,3.8045075E5,2.4686988E5,1.3157612E5,1.05577875E5,0E0,0E0,0E0,0E0,0E0,0E0,0E0,0E0,0E0,0E0,0E0,0E0,0E0,0E0,0E0,0E0],"parents":[2147483647,0,0,1,1,2,2,3,3,4,4,5,5,6,6,7,7,8,8,9,9,10,10,11,11,12,12,13,13,14,14],"right_children":[2,4,6,8,10,12,14,16,18,20,22,24,26,28,30,-1,-1,-1,-1,-1,-1,-1,-1,-1,-1,-1,-1,-1,-1,-1,-1],"split_conditions":[4.9E1,3E0,8.9E1,4.9E1,1.4739046E2,1.2599849E2,1E2,6.735124E1,1E0,1.7E1,6E1,6.735124E1,1E0,5.4833332E1,1E0,-7.8849E-1,1.1140686E0,4.575661E0,2.1588535E0,9.483264E-1,3.7097305E-1,2.7887714E0,5.2465816E0,-6.756922E-1,-6.4385064E-2,1.0594438E0,3.876262E0,8.378825E0,-6.994607E-1,-1.5605807E0,2.54179E0],"split_indices":[3,3,3,20,66,66,3,66,79,3,26,66,76,30,78,0,0,0,0,0,0,0,0,0,0,0,0,0,0,0,0],"split_type":[0,0,0,0,0,0,0,0,0,0,0,0,0,0,0,0,0,0,0,0,0,0,0,0,0,0,0,0,0,0,0],"sum_hessian":[5.464E4,1.1216E4,4.3424E4,9.74E2,1.0242E4,3.6528E4,6.896E3,1.5E2,8.24E2,9.982E3,2.6E2,3.5605E4,9.23E2,5.477E3,1.419E3,4.8E1,1.02E2,2.8E2,5.44E2,2.703E3,7.279E3,2.06E2,5.4E1,2.758E3,3.2847E4,8.38E2,8.5E1,3E0,5.474E3,1.404E3,1.5E1],"tree_param":{"num_deleted":"0","num_feature":"139","num_nodes":"31","size_leaf_vector":"1"}},{"base_weights":[1.4012404E-2,-1.4210801E0,2.083549E1,-1.0147484E1,2.4899624E-1,1.5165776E1,4.03136E1,-1.3902277E1,-7.046164E0,-3.1627083E0,2.0325217E0,2.0056387E1,-9.636148E0,2.9566246E1,4.860903E1,-7.050353E-1,1.2693686E0,-6.185706E-1,-2.2232042E-1,-2.435114E-1,3.7404227E-1,1.3632181E-1,-3.0037484E-1,1.4273642E-1,1.3363943E0,-1.1742252E0,-9.9440895E-2,1.2756218E0,3.3744316E0,2.0412428E0,3.5200868E0],"categories":[],"categories_nodes":[],"categories_segments":[],"categories_sizes":[],"default_left":[0,0,0,0,0,0,0,0,0,0,0,0,0,0,0,0,0,0,0,0,0,0,0,0,0,0,0,0,0,0,0],"id":32,"left_children":[1,3,5,7,9,11,13,15,17,19,21,23,25,27,29,-1,-1,-1,-1,-1,-1,-1,-1,-1,-1,-1,-1,-1,-1,-1,-1],"loss_changes":[1.6312195E6,7.44299E5,3.8812075E5,9.543606E4,2.6085228E5,3.3109025E5,6.9261875E4,2.9282E4,6.2175312E4,2.6750428E5,1.5707878E5,2.6146369E5,4.760963E4,5.1776344E4,7.27845E4,0E0,0E0,0E0,0E0,0E0,0E0,0E0,0E0,0E0,0E0,0E0,0E0,0E0,0E0,0E0,0E0],"parents":[2147483647,0,0,1,1,2,2,3,3,4,4,5,5,6,6,7,7,8,8,9,9,10,10,11,11,12,12,13,13,14,14],"right_children":[2,4,6,8,10,12,14,16,18,20,22,24,26,28,30,-1,-1,-1,-1,-1,-1,-1,-1,-1,-1,-1,-1,-1,-1,-1,-1],"split_conditions":[1.0862912E2,7.8599045E1,1.8989235E2,3.973E3,6.2E1,3.764516E1,6.876667E1,7.707439E1,4.211254E1,8.95298E1,2.005E3,1.936E3,1.943E3,1E0,1.995E3,-7.050353E-1,1.2693686E0,-6.185706E-1,-2.2232042E-1,-2.435114E-1,3.7404227E-1,1.3632181E-1,-3.0037484E-1,1.4273642E-1,1.3363943E0,-1.1742252E0,-9.9440895E-2,1.2756218E0,3.3744316E0,2.0412428E0,3.5200868E0],"split_indices":[62,66,62,42,23,6,30,62,62,62,2,2,2,88,2,0,0,0,0,0,0,0,0,0,0,0,0,0,0,0,0],"split_type":[0,0,0,0,0,0,0,0,0,0,0,0,0,0,0,0,0,0,0,0,0,0,0,0,0,0,0,0,0,0,0],"sum_hessian":[5.4589E4,5.107E4,3.519E3,8.203E3,4.2867E4,2.727E3,7.92E2,3.709E3,4.494E3,1.4716E4,2.8151E4,2.278E3,4.49E2,3.47E2,4.45E2,3.691E3,1.8E1,1.473E3,3.021E3,1.2682E4,2.034E3,2.5915E4,2.236E3,6.37E2,1.641E3,1.59E2,2.9E2,3.15E2,3.2E1,3.3E2,1.15E2],"tree_param":{"num_deleted":"0","num_feature":"139","num_nodes":"31","size_leaf_vector":"1"}},{"base_weights":[5.5268817E-2,-1.3261209E0,1.9792265E1,-9.619642E0,2.4674255E-1,-4.430785E0,2.4615595E1,4.022339E1,-1.0175905E1,-3.694643E0,2.0014117E0,1.2234546E2,-5.932491E0,1.8203875E1,4.049629E1,2.1921398E1,3.280414E-1,-6.6744936E-1,-3.66186E-1,-2.5400093E-1,2.5472695E-1,1.4793421E0,8.275512E-2,1.4718637E1,2.2306063E0,-5.350153E-1,1.2238446E0,1.1088809E0,-1.6175014E-1,1.7987536E0,3.66001E0],"categories":[],"categories_nodes":[],"categories_segments":[],"categories_sizes":[],"default_left":[0,0,0,0,0,0,0,0,0,0,0,0,0,0,0,0,0,0,0,0,0,0,0,0,0,0,0,0,0,0,0],"id":33,"left_children":[1,3,5,7,9,11,13,15,17,19,21,23,25,27,29,-1,-1,-1,-1,-1,-1,-1,-1,-1,-1,-1,-1,-1,-1,-1,-1],"loss_changes":[1.4888579E6,6.657453E5,4.174465E5,2.2598694E5,2.9670328E5,1.138119E5,3.02592E5,1.2035362E6,7.272931E4,1.609481E5,2.83544E5,8.0473195E4,8.551387E4,1.8102069E5,1.23936125E5,0E0,0E0,0E0,0E0,0E0,0E0,0E0,0E0,0E0,0E0,0E0,0E0,0E0,0E0,0E0,0E0],"parents":[2147483647,0,0,1,1,2,2,3,3,4,4,5,5,6,6,7,7,8,8,9,9,10,10,11,11,12,12,13,13,14,14],"right_children":[2,4,6,8,10,12,14,16,18,20,22,24,26,28,30,-1,-1,-1,-1,-1,-1,-1,-1,-1,-1,-1,-1,-1,-1,-1,-1],"split_conditions":[1.0862912E2,7.8599045E1,1.924E3,1.0875E4,6.4E1,-3E0,1.3759575E2,1.956E3,4.138E3,8.95298E1,4.9617E4,8.0154E4,1.9559392E2,2.1E1,3.2944846E2,2.1921398E1,3.280414E-1,-6.6744936E-1,-3.66186E-1,-2.5400093E-1,2.5472695E-1,1.4793421E0,8.275512E-2,1.4718637E1,2.2306063E0,-5.350153E-1,1.2238446E0,1.1088809E0,-1.6175014E-1,1.7987536E0,3.66001E0],"split_indices":[62,66,2,1,45,11,62,2,42,62,1,1,62,8,62,0,0,0,0,0,0,0,0,0,0,0,0,0,0,0,0],"split_type":[0,0,0,0,0,0,0,0,0,0,0,0,0,0,0,0,0,0,0,0,0,0,0,0,0,0,0,0,0,0,0],"sum_hessian":[5.4606E4,5.1035E4,3.571E3,8.135E3,4.29E4,5.93E2,2.978E3,8.9E1,8.046E3,1.3215E4,2.9685E4,6E0,5.87E2,2.123E3,8.55E2,6E0,8.3E1,3.807E3,4.239E3,1.1416E4,1.799E3,3.67E2,2.9318E4,1E0,5E0,5.08E2,7.9E1,1.791E3,3.32E2,7.53E2,1.02E2],"tree_param":{"num_deleted":"0","num_feature":"139","num_nodes":"31","size_leaf_vector":"1"}},{"base_weights":[-1.2321504E-3,-6.1063213E0,1.7535577E0,-6.990957E0,1.4741298E1,1.06525085E2,1.6074052E0,-7.4197826E0,2.6942999E1,-1.4718568E1,2.2594727E1,3.3812416E1,2.2971796E1,1.2998831E0,3.9561752E1,-3.7846252E-1,3.08549E0,3.01271E0,3.6556515E-1,5.229671E-1,-1.4286064E0,6.8072815E0,1.0238489E0,9.562708E-1,1.8836887E1,9.453727E-1,4.2379588E-2,-1.0137074E0,2.5095594E0],"categories":[],"categories_nodes":[],"categories_segments":[],"categories_sizes":[],"default_left":[0,0,0,0,0,0,0,0,0,0,0,0,0,0,0,0,0,0,0,0,0,0,0,0,0,0,0,0,0],"id":34,"left_children":[1,3,5,7,9,11,13,15,17,19,21,23,-1,25,27,-1,-1,-1,-1,-1,-1,-1,-1,-1,-1,-1,-1,-1,-1],"loss_changes":[5.8431656E5,2.2467788E5,6.485479E5,1.7019362E5,1.1508761E5,1.4984695E6,4.937474E5,1.19674625E5,9.5036945E4,3.6923227E4,9.14773E4,2.4462194E5,0E0,3.3420672E5,2.1726488E5,0E0,0E0,0E0,0E0,0E0,0E0,0E0,0E0,0E0,0E0,0E0,0E0,0E0,0E0],"parents":[2147483647,0,0,1,1,2,2,3,3,4,4,5,5,6,6,7,7,8,8,9,9,10,10,11,11,13,13,14,14],"right_children":[2,4,6,8,10,12,14,16,18,20,22,24,-1,26,28,-1,-1,-1,-1,-1,-1,-1,-1,-1,-1,-1,-1,-1,-1],"split_conditions":[4E0,1E0,1.0875E4,1E0,2.4032E4,7.8758064E1,1E0,1E0,4.0424E4,4.369355E1,5.025E1,1E0,2.2971796E1,5.0567E4,6.88E4,-3.7846252E-1,3.08549E0,3.01271E0,3.6556515E-1,5.229671E-1,-1.4286064E0,6.8072815E0,1.0238489E0,9.562708E-1,1.8836887E1,9.453727E-1,4.2379588E-2,-1.0137074E0,2.5095594E0],"split_indices":[59,115,1,137,1,24,74,109,1,6,15,109,0,1,1,0,0,0,0,0,0,0,0,0,0,0,0,0,0],"split_type":[0,0,0,0,0,0,0,0,0,0,0,0,0,0,0,0,0,0,0,0,0,0,0,0,0,0,0,0,0],"sum_hessian":[5.454E4,1.2176E4,4.2364E4,1.1681E4,4.95E2,5.8E1,4.2306E4,1.1536E4,1.45E2,1.04E2,3.91E2,4.9E1,9E0,4.1967E4,3.39E2,1.1512E4,2.4E1,5.3E1,9.2E1,3.7E1,6.7E1,6E0,3.85E2,4.8E1,1E0,1.05E3,4.0917E4,5.1E1,2.88E2],"tree_param":{"num_deleted":"0","num_feature":"139","num_nodes":"29","size_leaf_vector":"1"}},{"base_weights":[3.702503E-2,1.5304836E1,-3.6387534E0,5.579213E1,1.2344912E1,-2.883081E-1,-1.2184523E1,8.107228E1,4.0409695E1,1.1238592E1,6.1819695E1,-1.4622934E0,1.3827783E1,-1.2519975E1,1.8537E2,2.8612623E0,5.9706416E0,1.4941711E1,1.8707621E0,9.7691625E-1,3.7903532E-1,2.371546E0,4.4869323E0,-5.4958373E-1,-3.821451E-2,5.9177035E-1,3.1765676E0,-5.210883E-1,-1.4408109E0,-2.8942106E0,1.8631718E1],"categories":[],"categories_nodes":[],"categories_segments":[],"categories_sizes":[],"default_left":[0,0,0,0,0,0,0,0,0,0,0,0,0,0,0,0,0,0,0,0,0,0,0,0,0,0,0,0,0,0,0],"id":35,"left_children":[1,3,5,7,9,11,13,15,17,19,21,23,25,27,29,-1,-1,-1,-1,-1,-1,-1,-1,-1,-1,-1,-1,-1,-1,-1,-1],"loss_changes":[3.0536605E6,1.2645755E6,1.25563E6,2.7632175E5,5.378964E5,5.221071E5,8.208226E5,2.4094412E5,3.3627344E5,2.9209225E5,8.211331E4,1.9345825E5,2.3879728E5,4.2133262E5,9.781795E5,0E0,0E0,0E0,0E0,0E0,0E0,0E0,0E0,0E0,0E0,0E0,0E0,0E0,0E0,0E0,0E0],"parents":[2147483647,0,0,1,1,2,2,3,3,4,4,5,5,6,6,7,7,8,8,9,9,10,10,11,11,12,12,13,13,14,14],"right_children":[2,4,6,8,10,12,14,16,18,20,22,24,26,28,30,-1,-1,-1,-1,-1,-1,-1,-1,-1,-1,-1,-1,-1,-1,-1,-1],"split_conditions":[4.7E1,2E0,7.9E1,1E0,1.9559392E2,1.0862912E2,1E0,1.451E3,1.65E4,1.7E1,6.364516E1,4.211254E1,1E0,1E2,6.2E1,2.8612623E0,5.9706416E0,1.4941711E1,1.8707621E0,9.7691625E-1,3.7903532E-1,2.371546E0,4.4869323E0,-5.4958373E-1,-3.821451E-2,5.9177035E-1,3.1765676E0,-5.210883E-1,-1.4408109E0,-2.8942106E0,1.8631718E1],"split_indices":[3,3,3,60,65,65,75,41,1,3,18,65,76,3,47,0,0,0,0,0,0,0,0,0,0,0,0,0,0,0,0],"split_type":[0,0,0,0,0,0,0,0,0,0,0,0,0,0,0,0,0,0,0,0,0,0,0,0,0,0,0,0,0,0,0],"sum_hessian":[5.441E4,1.0557E4,4.3853E4,7.18E2,9.839E3,3.1503E4,1.235E4,2.7E2,4.48E2,9.625E3,2.14E2,2.9085E4,2.418E3,1.233E4,2E1,1.68E2,1.02E2,4E0,4.44E2,2.943E3,6.682E3,1.43E2,7.1E1,1.984E3,2.7101E4,2.326E3,9.2E1,1.0925E4,1.405E3,9E0,1.1E1],"tree_param":{"num_deleted":"0","num_feature":"139","num_nodes":"31","size_leaf_vector":"1"}},{"base_weights":[-4.022884E-2,-1.8067856E0,1.1575778E1,-8.674097E0,-2.7272372E-2,8.5001135E0,2.7911497E1,-8.863211E0,6.5041504E1,1.6097842E2,-1.6469249E-1,1.0685077E1,-6.119679E0,2.134706E1,4.4625134E1,-4.130774E-1,-8.755584E-1,-1.171365E0,4.4165034E0,2.0564022E0,2.1026823E1,-4.2283797E-1,4.115617E-2,4.98102E0,5.23141E-1,-9.200045E-1,-1.2760814E-1,1.7118381E0,2.8832942E-1,4.0586653E0,1.6153898E0],"categories":[],"categories_nodes":[],"categories_segments":[],"categories_sizes":[],"default_left":[0,0,0,0,0,0,0,0,0,0,0,0,0,0,0,0,0,0,0,0,0,0,0,0,0,0,0,0,0,0,0],"id":36,"left_children":[1,3,5,7,9,11,13,15,17,19,21,23,25,27,29,-1,-1,-1,-1,-1,-1,-1,-1,-1,-1,-1,-1,-1,-1,-1,-1],"loss_changes":[1.1169222E6,5.7735594E5,3.6076025E5,1.3612138E5,8.3023875E5,1.9326094E5,1.2390381E5,5.0320688E4,5.3577133E4,9.781644E5,3.0710525E5,1.0296856E5,3.443195E4,1.6428044E5,1.4143375E5,0E0,0E0,0E0,0E0,0E0,0E0,0E0,0E0,0E0,0E0,0E0,0E0,0E0,0E0,0E0,0E0],"parents":[2147483647,0,0,1,1,2,2,3,3,4,4,5,5,6,6,7,7,8,8,9,9,10,10,11,11,12,12,13,13,14,14],"right_children":[2,4,6,8,10,12,14,16,18,20,22,24,26,28,30,-1,-1,-1,-1,-1,-1,-1,-1,-1,-1,-1,-1,-1,-1,-1,-1],"split_conditions":[8.95298E1,4E0,1.5704166E2,1E0,1.0875E4,6.9E1,2.18736E5,5.1E1,2.4032E4,2.7E1,7.892195E1,1E0,2.5E4,5.6293957E1,3.28782E5,-4.130774E-1,-8.755584E-1,-1.171365E0,4.4165034E0,2.0564022E0,2.1026823E1,-4.2283797E-1,4.115617E-2,4.98102E0,5.23141E-1,-9.200045E-1,-1.2760814E-1,1.7118381E0,2.8832942E-1,4.0586653E0,1.6153898E0],"split_indices":[65,59,65,82,1,10,1,61,1,14,65,52,1,46,1,0,0,0,0,0,0,0,0,0,0,0,0,0,0,0,0],"split_type":[0,0,0,0,0,0,0,0,0,0,0,0,0,0,0,0,0,0,0,0,0,0,0,0,0,0,0,0,0,0,0],"sum_hessian":[5.4428E4,4.7244E4,7.184E3,9.722E3,3.7522E4,6.047E3,1.137E3,9.698E3,2.4E1,3.1E1,3.7491E4,5.261E3,7.86E2,8.18E2,3.19E2,9.069E3,6.29E2,5E0,1.9E1,2.2E1,9E0,3.99E3,3.3501E4,1.2E1,5.249E3,1.76E2,6.1E2,4.47E2,3.71E2,7.9E1,2.4E2],"tree_param":{"num_deleted":"0","num_feature":"139","num_nodes":"31","size_leaf_vector":"1"}},{"base_weights":[-5.597717E-2,1.3087875E1,-3.9195058E0,3.6811356E1,8.991046E0,-1.700354E0,-1.5212947E1,5.716088E1,2.5078642E1,8.011538E0,5.0613422E1,-2.268164E0,2.0257729E1,-1.5785214E1,2.3302907E2,9.394414E-1,3.6894815E0,1.8188378E0,8.9980364E-1,5.156086E-2,5.186111E-1,2.3785837E0,8.141692E0,-1.3956137E-2,-3.09287E-1,-6.6961175E-1,1.4116267E0,-6.379255E-1,-1.3676492E0,2.2966139E1,-2.5339987E0],"categories":[],"categories_nodes":[],"categories_segments":[],"categories_sizes":[],"default_left":[0,0,0,0,0,0,0,0,0,0,0,0,0,0,0,0,0,0,0,0,0,0,0,0,0,0,0,0,0,0,0],"id":37,"left_children":[1,3,5,7,9,11,13,15,17,19,21,23,25,27,29,-1,-1,-1,-1,-1,-1,-1,-1,-1,-1,-1,-1,-1,-1,-1,-1],"loss_changes":[2.772374E6,1.2050325E6,1.057384E6,4.34533E5,4.308135E5,4.3971816E5,9.880186E5,4.242125E5,9.216819E4,1.7029288E5,7.520081E4,2.678637E5,2.38943E5,2.4172562E5,1.0505035E6,0E0,0E0,0E0,0E0,0E0,0E0,0E0,0E0,0E0,0E0,0E0,0E0,0E0,0E0,0E0,0E0],"parents":[2147483647,0,0,1,1,2,2,3,3,4,4,5,5,6,6,7,7,8,8,9,9,10,10,11,11,12,12,13,13,14,14],"right_children":[2,4,6,8,10,12,14,16,18,20,22,24,26,28,30,-1,-1,-1,-1,-1,-1,-1,-1,-1,-1,-1,-1,-1,-1,-1,-1],"split_conditions":[5.3E1,7E0,8.9E1,1E0,2.2389668E2,1.2599849E2,1E0,7.8599045E1,2E0,5.9E1,3.2944846E2,6.5E1,3.797E1,1E2,2.3E1,9.394414E-1,3.6894815E0,1.8188378E0,8.9980364E-1,5.156086E-2,5.186111E-1,2.3785837E0,8.141692E0,-1.3956137E-2,-3.09287E-1,-6.6961175E-1,1.4116267E0,-6.379255E-1,-1.3676492E0,2.2966139E1,-2.5339987E0],"split_indices":[3,3,3,60,66,66,88,66,3,23,66,3,43,3,35,0,0,0,0,0,0,0,0,0,0,0,0,0,0,0,0],"split_type":[0,0,0,0,0,0,0,0,0,0,0,0,0,0,0,0,0,0,0,0,0,0,0,0,0,0,0,0,0,0,0],"sum_hessian":[5.4592E4,1.2401E4,4.2191E4,1.825E3,1.0576E4,3.5263E4,6.928E3,6.66E2,1.159E3,1.0334E4,2.42E2,3.4375E4,8.88E2,6.913E3,1.5E1,2.02E2,4.64E2,4.45E2,7.14E2,2.612E3,7.722E3,2.37E2,5E0,2.28E4,1.1575E4,1.7E2,7.18E2,5.481E3,1.432E3,8E0,7E0],"tree_param":{"num_deleted":"0","num_feature":"139","num_nodes":"31","size_leaf_vector":"1"}},{"base_weights":[1.3045391E-1,2.266457E1,-2.0027688E0,5.3179745E1,1.7123188E1,1.9668976E0,-8.6791315E0,4.500354E1,1.04342606E2,1.4392461E1,4.557855E1,1.3343304E-1,1.0359747E1,-8.874339E0,1.308752E2,1.8585138E0,4.366995E0,9.6708555E0,3.0445373E0,5.3769094E-1,1.7223797E0,3.3528638E0,1.3520349E0,-5.5082064E-2,5.058197E-1,4.275082E-1,1.5752753E0,-3.5036632E-1,-1.0802908E0,-3.2132561E0,1.3913123E1],"categories":[],"categories_nodes":[],"categories_segments":[],"categories_sizes":[],"default_left":[0,0,0,0,0,0,0,0,0,0,0,0,0,0,0,0,0,0,0,0,0,0,0,0,0,0,0,0,0,0,0],"id":38,"left_children":[1,3,5,7,9,11,13,15,17,19,21,23,25,27,29,-1,-1,-1,-1,-1,-1,-1,-1,-1,-1,-1,-1,-1,-1,-1,-1],"loss_changes":[2.6203085E6,7.962085E5,1.3197571E6,2.9816638E5,3.0946025E5,4.8055025E5,5.06992E5,2.0435512E5,3.713975E5,2.6547175E5,1.3714781E5,3.1603362E5,2.1397644E5,4.4061262E5,7.6567375E5,0E0,0E0,0E0,0E0,0E0,0E0,0E0,0E0,0E0,0E0,0E0,0E0,0E0,0E0,0E0,0E0],"parents":[2147483647,0,0,1,1,2,2,3,3,4,4,5,5,6,6,7,7,8,8,9,9,10,10,11,11,12,12,13,13,14,14],"right_children":[2,4,6,8,10,12,14,16,18,20,22,24,26,28,30,-1,-1,-1,-1,-1,-1,-1,-1,-1,-1,-1,-1,-1,-1,-1,-1],"split_conditions":[2.2E1,2E0,6.5E1,8.1595825E1,1E0,8.1595825E1,1E0,1E0,1.22E1,8.1595825E1,6.2E1,1E0,1.839452E2,9.8E1,6.5E1,1.8585138E0,4.366995E0,9.6708555E0,3.0445373E0,5.3769094E-1,1.7223797E0,3.3528638E0,1.3520349E0,-5.5082064E-2,5.058197E-1,4.275082E-1,1.5752753E0,-3.5036632E-1,-1.0802908E0,-3.2132561E0,1.3913123E1],"split_indices":[3,3,3,65,81,65,75,81,4,65,10,81,65,3,47,0,0,0,0,0,0,0,0,0,0,0,0,0,0,0,0],"split_type":[0,0,0,0,0,0,0,0,0,0,0,0,0,0,0,0,0,0,0,0,0,0,0,0,0,0,0,0,0,0,0],"sum_hessian":[5.4508E4,4.713E3,4.9795E4,7.23E2,3.99E3,3.1228E4,1.8567E4,6.25E2,9.8E1,3.642E3,3.48E2,2.563E4,5.598E3,1.8542E4,2.5E1,5.29E2,9.6E1,3.1E1,6.7E1,3.084E3,5.58E2,1.6E2,1.88E2,2.2809E4,2.821E3,5.158E3,4.4E2,1.6172E4,2.37E3,1.1E1,1.4E1],"tree_param":{"num_deleted":"0","num_feature":"139","num_nodes":"31","size_leaf_vector":"1"}},{"base_weights":[-1.0563971E-2,-1.075742E0,1.5360971E1,-8.204115E0,2.931222E-1,-5.1780176E0,1.9485847E1,4.435795E1,-8.784046E0,2.6568363E0,-1.7412851E0,-8.775021E0,3.3221016E1,1.6636318E1,3.9120575E1,1.949907E1,7.513963E-1,-4.9047843E-1,-1.3741088E-1,6.310447E0,1.22225486E-1,-1.3679327E-1,3.0994874E-1,-9.6065265E-1,2.6684958E-2,4.567376E0,2.0194857E-1,9.983582E-1,5.9105378E-2,9.206346E0,1.6052965E0],"categories":[],"categories_nodes":[],"categories_segments":[],"categories_sizes":[],"default_left":[0,0,0,0,0,0,0,0,0,0,0,0,0,0,0,0,0,0,0,0,0,0,0,0,0,0,0,0,0,0,0],"id":39,"left_children":[1,3,5,7,9,11,13,15,17,19,21,23,25,27,29,-1,-1,-1,-1,-1,-1,-1,-1,-1,-1,-1,-1,-1,-1,-1,-1],"loss_changes":[8.946603E5,4.9862462E5,3.000972E5,2.5132069E5,2.0615125E5,8.219753E4,1.6434488E5,9.0648225E5,5.0377188E4,5.1989953E5,1.8196902E5,5.27707E4,8.613982E4,1.32629E5,3.7349206E5,0E0,0E0,0E0,0E0,0E0,0E0,0E0,0E0,0E0,0E0,0E0,0E0,0E0,0E0,0E0,0E0],"parents":[2147483647,0,0,1,1,2,2,3,3,4,4,5,5,6,6,7,7,8,8,9,9,10,10,11,11,12,12,13,13,14,14],"right_children":[2,4,6,8,10,12,14,16,18,20,22,24,26,28,30,-1,-1,-1,-1,-1,-1,-1,-1,-1,-1,-1,-1,-1,-1,-1,-1],"split_conditions":[1.0862912E2,7.8599045E1,1.924E3,1.0875E4,5.8E1,2.4113516E2,2.4834059E2,1.956E3,1.2E1,4.206E4,8.95298E1,7.8285E4,2.40421E5,1.6E1,1.928E3,1.949907E1,7.513963E-1,-4.9047843E-1,-1.3741088E-1,6.310447E0,1.22225486E-1,-1.3679327E-1,3.0994874E-1,-9.6065265E-1,2.6684958E-2,4.567376E0,2.0194857E-1,9.983582E-1,5.9105378E-2,9.206346E0,1.6052965E0],"split_indices":[62,66,2,1,10,62,62,2,49,1,62,1,1,5,2,0,0,0,0,0,0,0,0,0,0,0,0,0,0,0,0],"split_type":[0,0,0,0,0,0,0,0,0,0,0,0,0,0,0,0,0,0,0,0,0,0,0,0,0,0,0,0,0,0,0],"sum_hessian":[5.4639E4,5.1099E4,3.54E3,8.231E3,4.2868E4,5.92E2,2.948E3,8.9E1,8.142E3,1.9829E4,2.3039E4,5.42E2,5E1,2.576E3,3.72E2,6E0,8.3E1,6.959E3,1.183E3,3.3E1,1.9796E4,2.0475E4,2.564E3,2.55E2,2.87E2,1.6E1,3.4E1,2.119E3,4.57E2,1.6E1,3.56E2],"tree_param":{"num_deleted":"0","num_feature":"139","num_nodes":"31","size_leaf_vector":"1"}},{"base_weights":[-3.8283236E-2,-9.2750126E-1,1.6775888E1,-7.5477567E0,3.5400715E-1,2.0473667E1,1.9811631E0,-1.2345698E1,-6.0072265E0,-1.2030679E0,3.2662928E0,1.9885426E2,2.0138968E1,-7.9331207E0,1.6776333E1,-8.31041E-1,-5.12523E-1,-1.3674083E-1,-3.7416804E-1,-9.606687E-2,2.0685335E-1,3.455242E-1,1.1589991E-1,1.1884326E0,1.8102777E1,7.9460734E-1,1.6834587E0,-2.8245977E-1,-2.3603659E0,5.670632E-1,2.4861102E0],"categories":[],"categories_nodes":[],"categories_segments":[],"categories_sizes":[],"default_left":[0,0,0,0,0,0,0,0,0,0,0,0,0,0,0,0,0,0,0,0,0,0,0,0,0,0,0,0,0,0,0],"id":40,"left_children":[1,3,5,7,9,11,13,15,17,19,21,23,25,27,29,-1,-1,-1,-1,-1,-1,-1,-1,-1,-1,-1,-1,-1,-1,-1,-1],"loss_changes":[8.1709806E5,4.403602E5,1.5013188E5,6.2146438E4,1.9720667E5,1.2710506E5,8.0809016E4,1.8147469E4,3.076925E4,1.0870275E5,5.2342312E4,1.0569122E5,1.2547556E5,2.93341E4,3.900903E4,0E0,0E0,0E0,0E0,0E0,0E0,0E0,0E0,0E0,0E0,0E0,0E0,0E0,0E0,0E0,0E0],"parents":[2147483647,0,0,1,1,2,2,3,3,4,4,5,5,6,6,7,7,8,8,9,9,10,10,11,11,12,12,13,13,14,14],"right_children":[2,4,6,8,10,12,14,16,18,20,22,24,26,28,30,-1,-1,-1,-1,-1,-1,-1,-1,-1,-1,-1,-1,-1,-1,-1,-1],"split_conditions":[1.1041848E2,7.707439E1,2.1E1,3.6737785E1,1.58E2,5.8E1,1.8989235E2,1E0,2.2E1,8.211031E1,8.3878525E1,-1.8E1,1.9559392E2,1.3679323E2,3.2944846E2,-8.31041E-1,-5.12523E-1,-1.3674083E-1,-3.7416804E-1,-9.606687E-2,2.0685335E-1,3.455242E-1,1.1589991E-1,1.1884326E0,1.8102777E1,7.9460734E-1,1.6834587E0,-2.8245977E-1,-2.3603659E0,5.670632E-1,2.4861102E0],"split_indices":[62,62,8,62,45,13,62,60,11,65,66,5,62,62,62,0,0,0,0,0,0,0,0,0,0,0,0,0,0,0,0],"split_type":[0,0,0,0,0,0,0,0,0,0,0,0,0,0,0,0,0,0,0,0,0,0,0,0,0,0,0,0,0,0,0],"sum_hessian":[5.4648E4,5.1904E4,2.744E3,8.417E3,4.3487E4,2.195E3,5.49E2,2.044E3,6.373E3,2.8337E4,1.515E4,3E0,2.192E3,3.29E2,2.2E2,6.7E2,1.374E3,1.982E3,4.391E3,2.4978E4,3.359E3,3.127E3,1.2023E4,2E0,1E0,1.67E3,5.22E2,3.12E2,1.7E1,1.9E2,3E1],"tree_param":{"num_deleted":"0","num_feature":"139","num_nodes":"31","size_leaf_vector":"1"}},{"base_weights":[1.1736639E-1,-9.400322E-1,1.5398661E1,-7.1264896E0,2.7622908E-1,-4.226299E0,1.9317081E1,-1.1486389E1,-5.7120304E0,1.5604064E0,-3.0190861E0,-9.563045E0,2.9295841E1,1.44427395E1,3.1491547E1,-2.7152827E-1,-6.9582987E-1,-2.9244494E-1,1.4511865E0,1.1252791E-1,-2.9985878E-1,-1.804422E-1,6.15339E-1,8.644493E0,-5.312941E-1,3.2963817E0,-1.2992288E0,8.788325E-1,-1.596987E-1,1.9791193E0,3.9673814E-1],"categories":[],"categories_nodes":[],"categories_segments":[],"categories_sizes":[],"default_left":[0,0,0,0,0,0,0,0,0,0,0,0,0,0,0,0,0,0,0,0,0,0,0,0,0,0,0,0,0,0,0],"id":41,"left_children":[1,3,5,7,9,11,13,15,17,19,21,23,25,27,29,-1,-1,-1,-1,-1,-1,-1,-1,-1,-1,-1,-1,-1,-1,-1,-1],"loss_changes":[8.808583E5,3.836384E5,2.713808E5,5.159447E4,1.803204E5,1.0547286E5,1.7407162E5,3.0108812E4,3.0249766E4,1.5994275E5,1.08045984E5,1.0034731E5,1.657398E5,1.1623769E5,1.5978494E5,0E0,0E0,0E0,0E0,0E0,0E0,0E0,0E0,0E0,0E0,0E0,0E0,0E0,0E0,0E0,0E0],"parents":[2147483647,0,0,1,1,2,2,3,3,4,4,5,5,6,6,7,7,8,8,9,9,10,10,11,11,12,12,13,13,14,14],"right_children":[2,4,6,8,10,12,14,16,18,20,22,24,26,28,30,-1,-1,-1,-1,-1,-1,-1,-1,-1,-1,-1,-1,-1,-1,-1,-1],"split_conditions":[1.0862912E2,7.707439E1,1.924E3,3.6737785E1,5.445E1,1.9559392E2,1.3759575E2,1.953E3,6.427419E1,2.005E3,1E0,-3E0,1.908E3,2.1E1,5.48E1,-2.7152827E-1,-6.9582987E-1,-2.9244494E-1,1.4511865E0,1.1252791E-1,-2.9985878E-1,-1.804422E-1,6.15339E-1,8.644493E0,-5.312941E-1,3.2963817E0,-1.2992288E0,8.788325E-1,-1.596987E-1,1.9791193E0,3.9673814E-1],"split_indices":[62,62,2,62,15,62,62,2,6,2,69,11,2,8,15,0,0,0,0,0,0,0,0,0,0,0,0,0,0,0,0],"split_type":[0,0,0,0,0,0,0,0,0,0,0,0,0,0,0,0,0,0,0,0,0,0,0,0,0,0,0,0,0,0,0],"sum_hessian":[5.4512E4,5.0985E4,3.527E3,8.376E3,4.2609E4,5.87E2,2.94E3,2.05E3,6.326E3,3.0661E4,1.1948E4,5.07E2,8E1,2.101E3,8.39E2,5.88E2,1.462E3,6.302E3,2.4E1,2.8096E4,2.565E3,1.1506E4,4.42E2,2E0,5.05E2,4.8E1,3.2E1,1.784E3,3.17E2,6.24E2,2.15E2],"tree_param":{"num_deleted":"0","num_feature":"139","num_nodes":"31","size_leaf_vector":"1"}},{"base_weights":[1.4754832E-2,1.2786097E1,-3.2895122E0,4.2433018E1,9.950137E0,-1.3322946E0,-1.3491921E1,3.5034626E1,8.6784225E1,9.095053E0,4.6716457E1,-2.1566243E0,9.192557E0,-1.4082401E1,2.1515015E2,-6.994265E-1,1.955052E0,2.8953764E0,6.9320636E0,3.5480753E-1,1.1918854E0,1.6193037E0,3.5334103E0,-1.2748873E-1,5.445287E-1,5.94161E-1,-5.7094663E-1,-5.6798166E-1,-1.2435969E0,1.92461E1,1.3045943E-1],"categories":[],"categories_nodes":[],"categories_segments":[],"categories_sizes":[],"default_left":[0,0,0,0,0,0,0,0,0,0,0,0,0,0,0,0,0,0,0,0,0,0,0,0,0,0,0,0,0,0,0],"id":42,"left_children":[1,3,5,7,9,11,13,15,17,19,21,23,25,27,29,-1,-1,-1,-1,-1,-1,-1,-1,-1,-1,-1,-1,-1,-1,-1,-1],"loss_changes":[2.2982078E6,9.4074075E5,8.639319E5,3.1754038E5,3.2081206E5,3.1498272E5,9.432299E5,1.6780019E5,2.001185E5,2.9413894E5,7.73425E4,1.7272303E5,1.4637981E5,2.0380225E5,6.484982E5,0E0,0E0,0E0,0E0,0E0,0E0,0E0,0E0,0E0,0E0,0E0,0E0,0E0,0E0,0E0,0E0],"parents":[2147483647,0,0,1,1,2,2,3,3,4,4,5,5,6,6,7,7,8,8,9,9,10,10,11,11,12,12,13,13,14,14],"right_children":[2,4,6,8,10,12,14,16,18,20,22,24,26,28,30,-1,-1,-1,-1,-1,-1,-1,-1,-1,-1,-1,-1,-1,-1,-1,-1],"split_conditions":[4.9E1,3E0,8.9E1,1E0,1.9559392E2,1.0862912E2,1E0,5.930645E1,7.6951614E1,1E0,6.2903225E1,7.66421E5,5.6683334E1,1E2,4.4466667E1,-6.994265E-1,1.955052E0,2.8953764E0,6.9320636E0,3.5480753E-1,1.1918854E0,1.6193037E0,3.5334103E0,-1.2748873E-1,5.445287E-1,5.94161E-1,-5.7094663E-1,-5.6798166E-1,-1.2435969E0,1.92461E1,1.3045943E-1],"split_indices":[3,3,3,81,62,62,75,18,27,81,18,1,15,3,36,0,0,0,0,0,0,0,0,0,0,0,0,0,0,0,0],"split_type":[0,0,0,0,0,0,0,0,0,0,0,0,0,0,0,0,0,0,0,0,0,0,0,0,0,0,0,0,0,0,0],"sum_hessian":[5.4458E4,1.1193E4,4.3265E4,9.76E2,1.0217E4,3.6302E4,6.963E3,8.38E2,1.38E2,9.986E3,2.31E2,3.3666E4,2.636E3,6.946E3,1.7E1,6.4E1,7.74E2,9E1,4.8E1,8.795E3,1.191E3,1.46E2,8.5E1,3.2682E4,9.84E2,2.332E3,3.04E2,5.548E3,1.398E3,9E0,8E0],"tree_param":{"num_deleted":"0","num_feature":"139","num_nodes":"31","size_leaf_vector":"1"}},{"base_weights":[1.9254413E-4,-9.3824506E-1,1.3545966E1,-6.7834435E0,1.9197704E-1,-7.2162166E0,1.7664263E1,-4.718534E0,-9.403519E0,1.4208107E0,-2.9122367E0,-1.19093485E1,2.2616713E1,1.6085678E1,6.0723324E1,-2.63229E-1,1.3391885E0,-4.4268012E-1,-1.4502758E0,1.0300292E-1,-2.800609E-1,-1.7383836E-1,5.959627E-1,-2.744483E-1,-1.984788E0,2.8247988E0,-1.1278257E0,8.941677E-3,9.752923E-1,1.6826069E0,4.773442E0],"categories":[],"categories_nodes":[],"categories_segments":[],"categories_sizes":[],"default_left":[0,0,0,0,0,0,0,0,0,0,0,0,0,0,0,0,0,0,0,0,0,0,0,0,0,0,0,0,0,0,0],"id":43,"left_children":[1,3,5,7,9,11,13,15,17,19,21,23,25,27,29,-1,-1,-1,-1,-1,-1,-1,-1,-1,-1,-1,-1,-1,-1,-1,-1],"loss_changes":[6.937627E5,3.3719056E5,3.024725E5,4.4698125E4,1.631568E5,8.231514E4,1.9960962E5,7.97333E4,3.902347E4,1.3755778E5,1.0160382E5,9.02306E4,1.2370922E5,1.5493925E5,9.460991E4,0E0,0E0,0E0,0E0,0E0,0E0,0E0,0E0,0E0,0E0,0E0,0E0,0E0,0E0,0E0,0E0],"parents":[2147483647,0,0,1,1,2,2,3,3,4,4,5,5,6,6,7,7,8,8,9,9,10,10,11,11,12,12,13,13,14,14],"right_children":[2,4,6,8,10,12,14,16,18,20,22,24,26,28,30,-1,-1,-1,-1,-1,-1,-1,-1,-1,-1,-1,-1,-1,-1,-1,-1],"split_conditions":[1.0862912E2,7.8599045E1,1.924E3,1.971E3,5.445E1,1.9559392E2,3.2944846E2,1E0,1E0,2.005E3,1E0,1.3679323E2,1.908E3,3E0,1.975E3,-2.63229E-1,1.3391885E0,-4.4268012E-1,-1.4502758E0,1.0300292E-1,-2.800609E-1,-1.7383836E-1,5.959627E-1,-2.744483E-1,-1.984788E0,2.8247988E0,-1.1278257E0,8.941677E-3,9.752923E-1,1.6826069E0,4.773442E0],"split_indices":[62,66,2,2,15,62,62,109,109,2,69,65,2,48,2,0,0,0,0,0,0,0,0,0,0,0,0,0,0,0,0],"split_type":[0,0,0,0,0,0,0,0,0,0,0,0,0,0,0,0,0,0,0,0,0,0,0,0,0,0,0,0,0,0,0],"sum_hessian":[5.4574E4,5.1039E4,3.535E3,8.269E3,4.277E4,5.85E2,2.95E3,4.626E3,3.643E3,3.0641E4,1.2129E4,5.06E2,7.9E1,2.847E3,1.03E2,4.548E3,7.8E1,3.545E3,9.8E1,2.8085E4,2.556E3,1.1685E4,4.44E2,4.12E2,9.4E1,4.5E1,3.4E1,5.04E2,2.343E3,5.9E1,4.4E1],"tree_param":{"num_deleted":"0","num_feature":"139","num_nodes":"31","size_leaf_vector":"1"}},{"base_weights":[5.5681705E-2,1.1378585E1,-3.3953598E0,3.2461773E1,7.876231E0,-1.6276473E0,-1.3237196E1,2.6744469E1,7.395328E1,1.3365168E1,4.2243896E0,2.8239736E-1,-4.777634E0,-1.3840006E1,1.886394E2,6.1378335E-3,1.6012357E0,9.492809E-1,4.6588283E0,6.234394E-1,2.4108906E0,3.1182137E-1,-2.2560404E-1,1.6720635E0,8.5142785E-4,-2.943943E-1,2.8450465E-2,1.09920635E1,-6.974208E-1,-3.339497E0,1.9023901E1],"categories":[],"categories_nodes":[],"categories_segments":[],"categories_sizes":[],"default_left":[0,0,0,0,0,0,0,0,0,0,0,0,0,0,0,0,0,0,0,0,0,0,0,0,0,0,0,0,0,0,0],"id":44,"left_children":[1,3,5,7,9,11,13,15,17,19,21,23,25,27,29,-1,-1,-1,-1,-1,-1,-1,-1,-1,-1,-1,-1,-1,-1,-1,-1],"loss_changes":[2.1293575E6,9.396639E5,7.265692E5,4.2810138E5,2.1877181E5,2.1302564E5,7.764581E5,2.2420388E5,2.2963925E5,1.3564162E5,1.15287766E5,1.9395425E5,7.933959E4,1.6370375E5,9.564351E5,0E0,0E0,0E0,0E0,0E0,0E0,0E0,0E0,0E0,0E0,0E0,0E0,0E0,0E0,0E0,0E0],"parents":[2147483647,0,0,1,1,2,2,3,3,4,4,5,5,6,6,7,7,8,8,9,9,10,10,11,11,12,12,13,13,14,14],"right_children":[2,4,6,8,10,12,14,16,18,20,22,24,26,28,30,-1,-1,-1,-1,-1,-1,-1,-1,-1,-1,-1,-1,-1,-1,-1,-1],"split_conditions":[5.4E1,7E0,9E1,1E0,1E0,6.2E1,1E0,6.2112904E1,5.5776E4,1E0,6.2E1,1.0875E4,2.83695E5,5.2258064E1,6E0,6.1378335E-3,1.6012357E0,9.492809E-1,4.6588283E0,6.234394E-1,2.4108906E0,3.1182137E-1,-2.2560404E-1,1.6720635E0,8.5142785E-4,-2.943943E-1,2.8450465E-2,1.09920635E1,-6.974208E-1,-3.339497E0,1.9023901E1],"split_indices":[3,3,3,81,64,3,88,18,1,74,10,1,1,18,59,0,0,0,0,0,0,0,0,0,0,0,0,0,0,0,0],"split_type":[0,0,0,0,0,0,0,0,0,0,0,0,0,0,0,0,0,0,0,0,0,0,0,0,0,0,0,0,0,0,0],"sum_hessian":[5.4491E4,1.2728E4,4.1763E4,1.812E3,1.0916E4,3.5405E4,6.358E3,1.594E3,2.18E2,4.36E3,6.556E3,2.2041E4,1.3364E4,6.34E3,1.8E1,2.64E2,1.33E3,5.7E1,1.61E2,4.252E3,1.08E2,5.329E3,1.227E3,1.74E2,2.1867E4,1.1066E4,2.298E3,2E0,6.338E3,8E0,1E1],"tree_param":{"num_deleted":"0","num_feature":"139","num_nodes":"31","size_leaf_vector":"1"}},{"base_weights":[9.982719E-2,1.9133934E1,-1.6896279E0,1.5586223E1,5.1732742E1,1.7759054E0,-7.4852657E0,1.4163662E1,7.124282E1,6.282124E1,8.585015E0,1.2654861E0,3.0286287E1,-6.339691E0,-2.155938E1,1.0130495E0,1.528457E-1,4.766756E0,1.2194222E0,4.1381483E0,1.7480534E0,-2.4218087E0,5.485441E-1,2.0136518E-2,4.5915148E-1,1.9973885E0,3.092745E-1,-2.4638978E-1,-5.211689E-1,-1.1441109E0,4.0711703E0],"categories":[],"categories_nodes":[],"categories_segments":[],"categories_sizes":[],"default_left":[0,0,0,0,0,0,0,0,0,0,0,0,0,0,0,0,0,0,0,0,0,0,0,0,0,0,0,0,0,0,0],"id":45,"left_children":[1,3,5,7,9,11,13,15,17,19,21,23,25,27,29,-1,-1,-1,-1,-1,-1,-1,-1,-1,-1,-1,-1,-1,-1,-1,-1],"loss_changes":[1.8553516E6,5.40557E5,1.0000643E6,3.3334662E5,2.1906625E5,4.5340972E5,3.0026588E5,2.788828E5,1.16202E5,1.99893E5,1.3455659E4,2.0911081E5,1.2735441E5,9.9298125E4,1.92857E5,0E0,0E0,0E0,0E0,0E0,0E0,0E0,0E0,0E0,0E0,0E0,0E0,0E0,0E0,0E0,0E0],"parents":[2147483647,0,0,1,1,2,2,3,3,4,4,5,5,6,6,7,7,8,8,9,9,10,10,11,11,12,12,13,13,14,14],"right_children":[2,4,6,8,10,12,14,16,18,20,22,24,26,28,30,-1,-1,-1,-1,-1,-1,-1,-1,-1,-1,-1,-1,-1,-1,-1,-1],"split_conditions":[2.2E1,1E0,6.5E1,1.4739046E2,2.8E1,1.7090489E2,1E2,1.974E3,4.45E1,9E0,1.0875E4,1E0,2.3E1,9.1E1,1E0,1.0130495E0,1.528457E-1,4.766756E0,1.2194222E0,4.1381483E0,1.7480534E0,-2.4218087E0,5.485441E-1,2.0136518E-2,4.5915148E-1,1.9973885E0,3.092745E-1,-2.4638978E-1,-5.211689E-1,-1.1441109E0,4.0711703E0],"split_indices":[3,81,3,66,5,62,3,2,4,3,1,81,5,3,78,0,0,0,0,0,0,0,0,0,0,0,0,0,0,0,0],"split_type":[0,0,0,0,0,0,0,0,0,0,0,0,0,0,0,0,0,0,0,0,0,0,0,0,0,0,0,0,0,0,0],"sum_hessian":[5.447E4,4.68E3,4.979E4,4.222E3,4.58E2,3.1159E4,1.8631E4,4.118E3,1.04E2,3.64E2,9.4E1,3.0612E4,5.47E2,1.723E4,1.401E3,2.658E3,1.46E3,6.8E1,3.6E1,2.11E2,1.53E2,3E0,9.1E1,2.7605E4,3.007E3,3.9E2,1.57E2,1.2805E4,4.425E3,1.384E3,1.7E1],"tree_param":{"num_deleted":"0","num_feature":"139","num_nodes":"31","size_leaf_vector":"1"}},{"base_weights":[-1.3292689E-2,1.1860108E1,-2.702012E0,4.4225388E1,9.407712E0,-8.9368594E-1,-1.0929288E1,5.854489E1,1.8445314E1,1.3136264E1,1.374305E0,-1.2829293E0,1.33382435E1,-8.725163E0,-2.104375E1,1.23116314E-1,3.393089E0,2.5618455E0,2.7780985E-2,6.168582E-1,2.7615213E0,4.736569E-1,-2.5892532E-1,9.0641305E-3,-2.1736704E-1,7.834955E-2,1.5757436E0,7.7275133E0,-4.4114944E-1,3.7739733E-1,-1.2218479E0],"categories":[],"categories_nodes":[],"categories_segments":[],"categories_sizes":[],"default_left":[0,0,0,0,0,0,0,0,0,0,0,0,0,0,0,0,0,0,0,0,0,0,0,0,0,0,0,0,0,0,0],"id":46,"left_children":[1,3,5,7,9,11,13,15,17,19,21,23,25,27,29,-1,-1,-1,-1,-1,-1,-1,-1,-1,-1,-1,-1,-1,-1,-1,-1],"loss_changes":[1.7435426E6,7.9997575E5,6.625045E5,2.6102212E5,2.80791E5,2.0225989E5,1.7869975E5,2.3809975E5,1.4956261E5,2.1469912E5,1.5782655E5,1.5945344E5,2.0792139E5,1.0662241E5,1.3940469E5,0E0,0E0,0E0,0E0,0E0,0E0,0E0,0E0,0E0,0E0,0E0,0E0,0E0,0E0,0E0,0E0],"parents":[2147483647,0,0,1,1,2,2,3,3,4,4,5,5,6,6,7,7,8,8,9,9,10,10,11,11,12,12,13,13,14,14],"right_children":[2,4,6,8,10,12,14,16,18,20,22,24,26,28,30,-1,-1,-1,-1,-1,-1,-1,-1,-1,-1,-1,-1,-1,-1,-1,-1],"split_conditions":[4.5E1,2E0,8.7E1,1.974E3,1.976E3,1.2599849E2,1E2,1.128E3,1E0,2.2389668E2,1E0,6.2E1,7.8564514E1,5.2258064E1,8.1E1,1.23116314E-1,3.393089E0,2.5618455E0,2.7780985E-2,6.168582E-1,2.7615213E0,4.736569E-1,-2.5892532E-1,9.0641305E-3,-2.1736704E-1,7.834955E-2,1.5757436E0,7.7275133E0,-4.4114944E-1,3.7739733E-1,-1.2218479E0],"split_indices":[3,3,3,2,2,66,3,41,64,66,64,3,24,18,31,0,0,0,0,0,0,0,0,0,0,0,0,0,0,0,0],"split_type":[0,0,0,0,0,0,0,0,0,0,0,0,0,0,0,0,0,0,0,0,0,0,0,0,0,0,0,0,0,0,0],"sum_hessian":[5.4613E4,1.0083E4,4.453E4,7.09E2,9.374E3,3.6507E4,8.023E3,4.55E2,2.54E2,6.402E3,2.972E3,3.5536E4,9.71E2,6.589E3,1.434E3,6.5E1,3.9E2,8.9E1,1.65E2,6.284E3,1.18E2,1.329E3,1.643E3,2.4047E4,1.1489E4,5.9E2,3.81E2,3E0,6.586E3,1.52E2,1.282E3],"tree_param":{"num_deleted":"0","num_feature":"139","num_nodes":"31","size_leaf_vector":"1"}},{"base_weights":[7.715741E-2,-3.9917672E-1,1.5486344E1,-7.873978E0,3.5081372E-1,8.40204E0,2.5585306E1,-6.8307533E0,-1.4357357E1,-2.35556E0,1.6046549E0,-2.672367E0,2.8247417E1,2.0068207E1,4.9421043E1,-3.0019534E-1,-7.7830833E-1,-7.673492E-1,-5.031236E-1,-1.881671E-1,2.481958E-1,2.798157E-2,3.2808998E-1,-4.1836467E-1,1.2969397E0,1.7842028E0,-7.388612E-2,1.0813522E0,-1.3559536E0,1.7385448E0,3.7966669E0],"categories":[],"categories_nodes":[],"categories_segments":[],"categories_sizes":[],"default_left":[0,0,0,0,0,0,0,0,0,0,0,0,0,0,0,0,0,0,0,0,0,0,0,0,0,0,0,0,0,0,0],"id":47,"left_children":[1,3,5,7,9,11,13,15,17,19,21,23,25,27,29,-1,-1,-1,-1,-1,-1,-1,-1,-1,-1,-1,-1,-1,-1,-1,-1],"loss_changes":[4.00465E5,2.9669625E5,1.1683119E5,3.2543188E4,1.6322116E5,2.1171956E5,8.764206E4,2.994636E4,2.6847969E3,1.5694172E5,1.7027903E5,1.0107594E5,7.631672E4,4.09695E4,4.629925E4,0E0,0E0,0E0,0E0,0E0,0E0,0E0,0E0,0E0,0E0,0E0,0E0,0E0,0E0,0E0,0E0],"parents":[2147483647,0,0,1,1,2,2,3,3,4,4,5,5,6,6,7,7,8,8,9,9,10,10,11,11,12,12,13,13,14,14],"right_children":[2,4,6,8,10,12,14,16,18,20,22,24,26,28,30,-1,-1,-1,-1,-1,-1,-1,-1,-1,-1,-1,-1,-1,-1,-1,-1],"split_conditions":[1.2599849E2,7.3622604E1,7.8564514E1,5.8E1,6.4E1,2.4113516E2,1E0,4.899E3,1.11E2,8.388298E1,2.8E1,6.3E1,4.9410713E1,9.7E1,5.3E1,-3.0019534E-1,-7.7830833E-1,-7.673492E-1,-5.031236E-1,-1.881671E-1,2.481958E-1,2.798157E-2,3.2808998E-1,-4.1836467E-1,1.2969397E0,1.7842028E0,-7.388612E-2,1.0813522E0,-1.3559536E0,1.7385448E0,3.7966669E0],"split_indices":[66,66,24,61,45,66,99,42,58,66,61,23,9,28,20,0,0,0,0,0,0,0,0,0,0,0,0,0,0,0,0],"split_type":[0,0,0,0,0,0,0,0,0,0,0,0,0,0,0,0,0,0,0,0,0,0,0,0,0,0,0,0,0,0,0],"sum_hessian":[5.4558E4,5.2923E4,1.635E3,4.825E3,4.8098E4,9.62E2,6.73E2,4.158E3,6.67E2,1.5228E4,3.287E4,6.18E2,3.44E2,5.48E2,1.25E2,3.8E3,3.58E2,5.4E2,1.27E2,1.2772E4,2.456E3,2.7148E4,5.722E3,5.16E2,1.02E2,2.75E2,6.9E1,5.31E2,1.7E1,8.2E1,4.3E1],"tree_param":{"num_deleted":"0","num_feature":"139","num_nodes":"31","size_leaf_vector":"1"}},{"base_weights":[2.3163456E-2,-1.1225029E0,7.50458E0,-6.2193785E0,2.0118299E-1,5.7282233E0,2.2326113E1,-6.393712E0,5.6900066E1,1.4759528E2,6.7796424E-2,7.76968E0,-2.0626872E0,2.5944855E1,-1.0389622E1,-3.242169E-1,1.6087805E0,-2.6975167E-1,4.6930804E0,